{"learner":{"attributes":{"scikit_learn":"{\"_estimator_type\": \"classifier\"}"},"feature_names":["face_x","face_y","face_w","face_h","left_eye_x","left_eye_y","left_eye_w","left_eye_h","right_eye_x","right_eye_y","right_eye_w","right_eye_h","left_eye_dx","left_eye_dy","right_eye_dx","right_eye_dy","sym_dx","sym_dy","yaw","pitch","roll","yaw_vel","pitch_vel","roll_vel","left_eye_motion","right_eye_motion","yaw_std_5","pitch_std_5","eye_motion_mean_5","left_eye_ear","right_eye_ear","eye_ear_mean","left_eye_dx_center","left_eye_dy_center","right_eye_dx_center","right_eye_dy_center","left_eye_gaze_mag","right_eye_gaze_mag","eye_gaze_mag_mean","eye_gaze_mag_std_5"],"feature_types":["float","float","float","float","float","float","float","float","float","float","float","float","float","float","float","float","float","float","float","float","float","float","float","float","float","float","float","float","float","float","float","float","float","float","float","float","float","float","float","float"],"gradient_booster":{"model":{"cats":{"enc":[],"feature_segments":[],"sorted_idx":[]},"gbtree_model_param":{"num_parallel_tree":"1","num_trees":"400"},"iteration_indptr":[0,1,2,3,4,5,6,7,8,9,10,11,12,13,14,15,16,17,18,19,20,21,22,23,24,25,26,27,28,29,30,31,32,33,34,35,36,37,38,39,40,41,42,43,44,45,46,47,48,49,50,51,52,53,54,55,56,57,58,59,60,61,62,63,64,65,66,67,68,69,70,71,72,73,74,75,76,77,78,79,80,81,82,83,84,85,86,87,88,89,90,91,92,93,94,95,96,97,98,99,100,101,102,103,104,105,106,107,108,109,110,111,112,113,114,115,116,117,118,119,120,121,122,123,124,125,126,127,128,129,130,131,132,133,134,135,136,137,138,139,140,141,142,143,144,145,146,147,148,149,150,151,152,153,154,155,156,157,158,159,160,161,162,163,164,165,166,167,168,169,170,171,172,173,174,175,176,177,178,179,180,181,182,183,184,185,186,187,188,189,190,191,192,193,194,195,196,197,198,199,200,201,202,203,204,205,206,207,208,209,210,211,212,213,214,215,216,217,218,219,220,221,222,223,224,225,226,227,228,229,230,231,232,233,234,235,236,237,238,239,240,241,242,243,244,245,246,247,248,249,250,251,252,253,254,255,256,257,258,259,260,261,262,263,264,265,266,267,268,269,270,271,272,273,274,275,276,277,278,279,280,281,282,283,284,285,286,287,288,289,290,291,292,293,294,295,296,297,298,299,300,301,302,303,304,305,306,307,308,309,310,311,312,313,314,315,316,317,318,319,320,321,322,323,324,325,326,327,328,329,330,331,332,333,334,335,336,337,338,339,340,341,342,343,344,345,346,347,348,349,350,351,352,353,354,355,356,357,358,359,360,361,362,363,364,365,366,367,368,369,370,371,372,373,374,375,376,377,378,379,380,381,382,383,384,385,386,387,388,389,390,391,392,393,394,395,396,397,398,399,400],"tree_info":[0,0,0,0,0,0,0,0,0,0,0,0,0,0,0,0,0,0,0,0,0,0,0,0,0,0,0,0,0,0,0,0,0,0,0,0,0,0,0,0,0,0,0,0,0,0,0,0,0,0,0,0,0,0,0,0,0,0,0,0,0,0,0,0,0,0,0,0,0,0,0,0,0,0,0,0,0,0,0,0,0,0,0,0,0,0,0,0,0,0,0,0,0,0,0,0,0,0,0,0,0,0,0,0,0,0,0,0,0,0,0,0,0,0,0,0,0,0,0,0,0,0,0,0,0,0,0,0,0,0,0,0,0,0,0,0,0,0,0,0,0,0,0,0,0,0,0,0,0,0,0,0,0,0,0,0,0,0,0,0,0,0,0,0,0,0,0,0,0,0,0,0,0,0,0,0,0,0,0,0,0,0,0,0,0,0,0,0,0,0,0,0,0,0,0,0,0,0,0,0,0,0,0,0,0,0,0,0,0,0,0,0,0,0,0,0,0,0,0,0,0,0,0,0,0,0,0,0,0,0,0,0,0,0,0,0,0,0,0,0,0,0,0,0,0,0,0,0,0,0,0,0,0,0,0,0,0,0,0,0,0,0,0,0,0,0,0,0,0,0,0,0,0,0,0,0,0,0,0,0,0,0,0,0,0,0,0,0,0,0,0,0,0,0,0,0,0,0,0,0,0,0,0,0,0,0,0,0,0,0,0,0,0,0,0,0,0,0,0,0,0,0,0,0,0,0,0,0,0,0,0,0,0,0,0,0,0,0,0,0,0,0,0,0,0,0,0,0,0,0,0,0,0,0,0,0,0,0,0,0,0,0,0,0,0,0,0,0,0,0,0,0,0,0,0,0,0,0,0,0,0,0,0,0,0,0,0,0,0,0,0,0,0,0,0,0,0,0,0,0],"trees":[{"base_weights":[-1.700841E-3,-7.1799374E-1,1.3027099E0,-3.849806E-1,-1.9799018E0,-1.3104435E0,1.4754689E0,-1.8253491E0,-8.071682E-2,-1.9812931E0,1.1111111E-2,3.4055728E-1,-1.7998147E0,1.0645071E0,1.8953923E0,1.7283951E-1,-1.9452876E0,-1.6968056E0,1.777874E-1,-1.6031746E0,-1.9918121E0,9.44E-1,-1.6363636E0,-1.9105928E0,4.4444445E-1,6.4635396E-1,1.5680363E0,1.9039754E0,-1.4482758E0,-8.24E-2,6.453202E-2,8.75E-2,-9.830477E-2,-9.046794E-2,-8.474576E-4,3.2391116E-2,-2.642184E-2,-2.0634921E-2,-9.7927466E-2,-9.961451E-2,-2.5E-2,7.530864E-2,-4.3478264E-3,-9.178083E-2,5E-2,-9.8613866E-2,5.652174E-2,8.285715E-2,-7.3913045E-2,1.3321402E-2,7.0645995E-2,8.749726E-2,-6.666667E-2,1.2676056E-2,9.572823E-2,-8.4E-2,-0E0],"categories":[],"categories_nodes":[],"categories_segments":[],"categories_sizes":[],"default_left":[0,0,0,0,0,0,0,0,0,0,0,0,0,0,0,0,0,0,0,0,0,0,0,0,0,0,0,0,0,0,0,0,0,0,0,0,0,0,0,0,0,0,0,0,0,0,0,0,0,0,0,0,0,0,0,0,0],"id":0,"left_children":[1,3,5,7,9,11,13,15,17,19,-1,21,23,25,27,29,31,33,35,37,39,41,43,45,47,49,51,53,55,-1,-1,-1,-1,-1,-1,-1,-1,-1,-1,-1,-1,-1,-1,-1,-1,-1,-1,-1,-1,-1,-1,-1,-1,-1,-1,-1,-1],"loss_changes":[1.4833118E4,4.3057754E3,2.5424434E3,3.5538567E3,6.995117E0,2.829922E2,9.089922E2,3.392749E2,2.7977659E3,5.3115234E0,0E0,9.787613E1,6.7913025E1,5.6121387E2,7.765527E1,1.669892E2,1.0603174E2,1.7457812E2,1.9169387E3,2.5844803E1,4.84375E-1,3.6354454E1,1.1947693E1,5.0485535E1,3.392712E1,4.249771E2,6.4134863E2,4.5015625E1,2.4331026E0,0E0,0E0,0E0,0E0,0E0,0E0,0E0,0E0,0E0,0E0,0E0,0E0,0E0,0E0,0E0,0E0,0E0,0E0,0E0,0E0,0E0,0E0,0E0,0E0,0E0,0E0,0E0,0E0],"parents":[2147483647,0,0,1,1,2,2,3,3,4,4,5,5,6,6,7,7,8,8,9,9,11,11,12,12,13,13,14,14,15,15,16,16,17,17,18,18,19,19,20,20,21,21,22,22,23,23,24,24,25,25,26,26,27,27,28,28],"right_children":[2,4,6,8,10,12,14,16,18,20,-1,22,24,26,28,30,32,34,36,38,40,42,44,46,48,50,52,54,56,-1,-1,-1,-1,-1,-1,-1,-1,-1,-1,-1,-1,-1,-1,-1,-1,-1,-1,-1,-1,-1,-1,-1,-1,-1,-1,-1,-1],"split_conditions":[2.2542477E-1,-5.848183E-2,4.0614158E-2,4.5309663E-1,7.651755E-2,1.4308828E-1,4.1806614E-1,1.4447016E-1,1.2168811E-2,-5.7717294E-2,1.1111111E-2,6.691663E-1,4.0484184E-1,3.9379227E-1,-1.0210018E-2,3.2674688E-1,2.9530686E-1,5.6376004E-1,4.951315E-1,5.9498054E-1,2.2270983E-1,4.5905337E-3,5.610661E-1,-6.155497E-2,-7.02755E-2,-7.344383E-2,6.572522E-1,2.2695082E-1,5.0570077E-1,-8.24E-2,6.453202E-2,8.75E-2,-9.830477E-2,-9.046794E-2,-8.474576E-4,3.2391116E-2,-2.642184E-2,-2.0634921E-2,-9.7927466E-2,-9.961451E-2,-2.5E-2,7.530864E-2,-4.3478264E-3,-9.178083E-2,5E-2,-9.8613866E-2,5.652174E-2,8.285715E-2,-7.3913045E-2,1.3321402E-2,7.0645995E-2,8.749726E-2,-6.666667E-2,1.2676056E-2,9.572823E-2,-8.4E-2,-0E0],"split_indices":[2,16,6,5,14,19,3,19,34,16,0,8,1,1,15,3,1,8,1,9,2,39,1,12,16,13,8,2,1,0,0,0,0,0,0,0,0,0,0,0,0,0,0,0,0,0,0,0,0,0,0,0,0,0,0,0,0],"split_type":[0,0,0,0,0,0,0,0,0,0,0,0,0,0,0,0,0,0,0,0,0,0,0,0,0,0,0,0,0,0,0,0,0,0,0,0,0,0,0,0,0,0,0,0,0,0,0,0,0,0,0,0,0,0,0,0,0],"sum_hessian":[1.58735E4,1.0247E4,5.6265E3,8.1085E3,2.1385E3,3.485E2,5.278E3,1.41325E3,6.69525E3,2.13725E3,1.25E0,7.975E1,2.6875E2,2.66925E3,2.60875E3,8E1,1.33325E3,9.225E2,5.77275E3,6.2E1,2.07525E3,6.15E1,1.825E1,2.5625E2,1.25E1,1.4595E3,1.20975E3,2.6025E3,6.25E0,3.025E1,4.975E1,7E0,1.32625E3,8.645E2,5.8E1,3.466E3,2.30675E3,1.475E1,4.725E1,2.07425E3,1E0,3.95E1,2.2E1,1.725E1,1E0,2.515E2,4.75E0,7.75E0,4.75E0,9.7675E2,4.8275E2,1.13875E3,7.1E1,1.675E1,2.58575E3,5.25E0,1E0],"tree_param":{"num_deleted":"0","num_feature":"40","num_nodes":"57","size_leaf_vector":"1"}},{"base_weights":[-1.0048627E-3,-6.9402367E-1,1.2675318E0,-2.2880828E-1,-1.5960964E0,5.7637703E-1,1.6916698E0,-1.7461793E0,7.531324E-2,-8.250257E-1,-1.7759128E0,-1.6735073E0,8.8933015E-1,1.7119756E0,-1.548413E0,-3.332007E-1,-1.8696883E0,-1.4142628E0,4.026947E-1,-3.4395215E-1,-1.458214E0,-1.8930548E0,-1.4904813E0,1.2519112E0,-1.869026E0,2.1831553E-1,1.5844811E0,1.0090374E0,1.7883847E0,1.6010085E-2,-8.744216E-2,-6.1559826E-2,8.497774E-2,2.6847903E-2,-9.467449E-2,3.560696E-2,-7.763218E-2,-8.019516E-2,2.8545389E-2,-6.8770066E-2,4.795105E-2,6.1856028E-2,-7.993129E-2,-9.481898E-2,2.7761323E-2,1.636563E-2,-8.152359E-2,7.5221404E-2,-4.066071E-2,-9.5400624E-2,6.879919E-2,-4.1652014E-4,9.262393E-2,-7.0742755E-3,8.303851E-2,2.7646242E-2,7.799465E-2,7.522037E-2,9.241753E-2],"categories":[],"categories_nodes":[],"categories_segments":[],"categories_sizes":[],"default_left":[0,0,0,0,0,0,0,0,0,0,0,0,0,0,0,0,0,0,0,0,0,0,0,0,0,0,0,0,0,0,0,0,0,0,0,0,0,0,0,0,0,0,0,0,0,0,0,0,0,0,0,0,0,0,0,0,0,0,0],"id":1,"left_children":[1,3,5,7,9,11,13,15,17,19,21,23,25,27,29,31,33,35,37,39,41,43,45,47,49,51,53,55,57,-1,-1,-1,-1,-1,-1,-1,-1,-1,-1,-1,-1,-1,-1,-1,-1,-1,-1,-1,-1,-1,-1,-1,-1,-1,-1,-1,-1,-1,-1],"loss_changes":[1.3986535E4,4.3174116E3,1.6467676E3,3.133126E3,4.8389258E2,1.5076528E3,2.3179199E2,1.972063E2,2.7590852E3,2.0170993E2,9.205957E1,1.5194415E2,8.759166E2,1.8412012E2,8.880486E0,1.7064929E2,6.0718994E1,3.010796E2,1.5664751E3,5.1005734E2,1.1032892E2,1.7401367E1,2.1185681E2,1.0080633E1,3.3693115E1,3.544767E2,1.2170557E2,8.498453E1,5.0365234E1,0E0,0E0,0E0,0E0,0E0,0E0,0E0,0E0,0E0,0E0,0E0,0E0,0E0,0E0,0E0,0E0,0E0,0E0,0E0,0E0,0E0,0E0,0E0,0E0,0E0,0E0,0E0,0E0,0E0,0E0],"parents":[2147483647,0,0,1,1,2,2,3,3,4,4,5,5,6,6,7,7,8,8,9,9,10,10,11,11,12,12,13,13,14,14,15,15,16,16,17,17,18,18,19,19,20,20,21,21,22,22,23,23,24,24,25,25,26,26,27,27,28,28],"right_children":[2,4,6,8,10,12,14,16,18,20,22,24,26,28,30,32,34,36,38,40,42,44,46,48,50,52,54,56,58,-1,-1,-1,-1,-1,-1,-1,-1,-1,-1,-1,-1,-1,-1,-1,-1,-1,-1,-1,-1,-1,-1,-1,-1,-1,-1,-1,-1,-1,-1],"split_conditions":[1.4076498E-1,5.155331E-1,2.3653683E-1,4.511621E-1,-8.5995E-2,4.4920018E-1,-2.3693815E-2,5.454683E-1,1.1361635E-1,5.314188E-1,9.1611385E-2,1.561153E-1,3.911493E-1,1.6343176E-2,-6.274861E-2,1.2701589E-1,1.3802056E-1,-6.583476E-2,-5.667551E-2,5.3146815E-1,4.6323943E-1,2.5762385E-1,6.4867005E-2,4.561553E-1,-7.186778E-2,5.163703E-1,7.733047E-3,4.0647796E-1,5.213512E-1,1.6010085E-2,-8.744216E-2,-6.1559826E-2,8.497774E-2,2.6847903E-2,-9.467449E-2,3.560696E-2,-7.763218E-2,-8.019516E-2,2.8545389E-2,-6.8770066E-2,4.795105E-2,6.1856028E-2,-7.993129E-2,-9.481898E-2,2.7761323E-2,1.636563E-2,-8.152359E-2,7.5221404E-2,-4.066071E-2,-9.5400624E-2,6.879919E-2,-4.1652014E-4,9.262393E-2,-7.0742755E-3,8.303851E-2,2.7646242E-2,7.799465E-2,7.522037E-2,9.241753E-2],"split_indices":[18,29,2,5,16,5,15,8,19,5,18,19,0,11,12,18,19,33,12,8,30,2,24,9,13,9,11,0,8,0,0,0,0,0,0,0,0,0,0,0,0,0,0,0,0,0,0,0,0,0,0,0,0,0,0,0,0,0,0],"split_type":[0,0,0,0,0,0,0,0,0,0,0,0,0,0,0,0,0,0,0,0,0,0,0,0,0,0,0,0,0,0,0,0,0,0,0,0,0,0,0,0,0,0,0,0,0,0,0,0,0,0,0,0,0,0,0,0,0,0,0],"sum_hessian":[1.5907704E4,1.0287795E4,5.619909E3,6.788233E3,3.4995618E3,2.1381094E3,3.4817998E3,1.1325908E3,5.655642E3,6.62837E2,2.8367249E3,2.6055783E2,1.8775515E3,3.4605837E3,2.1216045E1,9.133935E1,1.0412515E3,1.0184418E3,4.6372007E3,3.7753943E2,2.8529752E2,2.0072926E3,8.294323E2,1.5984791E1,2.4457303E2,9.5602997E2,9.2152155E2,3.4067682E2,3.119907E3,1.9973289E0,1.9218716E1,6.362605E1,2.77133E1,9.985936E0,1.0312655E3,6.1974606E1,9.5646716E2,3.5800903E2,4.2791914E3,2.106951E2,1.6684435E2,1.3739742E1,2.715578E2,2.0047954E3,2.497164E0,5.9212517E1,7.7021985E2,1.4485106E1,1.4996845E0,2.4207668E2,2.496363E0,8.4045953E2,1.1557043E2,3.8971638E1,8.825499E2,1.8746123E2,1.5321558E2,5.484984E2,2.5714087E3],"tree_param":{"num_deleted":"0","num_feature":"40","num_nodes":"59","size_leaf_vector":"1"}},{"base_weights":[-1.675753E-3,-6.59215E-1,1.2135508E0,-2.2175515E-1,-1.5373738E0,5.476355E-1,1.6210507E0,6.974268E-2,-1.3430204E0,-8.0951715E-1,-1.7038534E0,-1.5278301E0,8.480196E-1,1.6389979E0,-1.3631305E0,3.604628E-1,-1.5949261E0,-1.5970026E0,6.8005925E-1,-9.7495955E-1,8.9178145E-1,-1.8104413E0,-1.4386482E0,1.5007312E0,-1.7941138E0,1.9594546E-1,1.4963542E0,8.031278E-1,1.677448E0,2.682564E-2,-1.561616E0,-7.2008274E-2,2.7277112E-2,-4.7798693E-2,-8.710283E-2,-8.352472E-2,2.8257245E-2,6.4485304E-2,-5.90869E-2,-9.714427E-4,-6.2133905E-2,7.18624E-2,-5.3642716E-2,-9.068632E-2,6.0811765E-2,2.8898498E-2,-7.6497756E-2,8.9688115E-2,-8.058092E-3,-9.118732E-2,6.1595943E-2,5.912563E-2,-6.7704576E-3,4.5081484E-4,7.9275556E-2,-1.2209103E-2,7.882488E-2,8.412088E-2,-8.814332E-2,2.7488524E-3,-8.497094E-2],"categories":[],"categories_nodes":[],"categories_segments":[],"categories_sizes":[],"default_left":[0,0,0,0,0,0,0,0,0,0,0,0,0,0,0,0,0,0,0,0,0,0,0,0,0,0,0,0,0,0,0,0,0,0,0,0,0,0,0,0,0,0,0,0,0,0,0,0,0,0,0,0,0,0,0,0,0,0,0,0,0],"id":2,"left_children":[1,3,5,7,9,11,13,15,17,19,21,23,25,27,29,31,33,35,37,39,41,43,45,47,49,51,53,55,57,-1,59,-1,-1,-1,-1,-1,-1,-1,-1,-1,-1,-1,-1,-1,-1,-1,-1,-1,-1,-1,-1,-1,-1,-1,-1,-1,-1,-1,-1,-1,-1],"loss_changes":[1.2664771E4,3.950626E3,1.5092031E3,2.2442483E3,4.1298877E2,1.3193071E3,1.8710449E2,2.6382832E3,7.290442E2,1.805762E2,7.604053E1,2.18539E2,7.8074207E2,1.0894238E2,8.824261E0,1.5473827E3,7.4531494E1,2.0100195E2,1.8168167E2,1.489508E2,6.2740376E1,2.190039E1,1.4864502E2,1.1088192E1,2.4347717E1,3.0163812E2,1.228103E2,1.2417161E2,5.9039062E1,0E0,4.422592E0,0E0,0E0,0E0,0E0,0E0,0E0,0E0,0E0,0E0,0E0,0E0,0E0,0E0,0E0,0E0,0E0,0E0,0E0,0E0,0E0,0E0,0E0,0E0,0E0,0E0,0E0,0E0,0E0,0E0,0E0],"parents":[2147483647,0,0,1,1,2,2,3,3,4,4,5,5,6,6,7,7,8,8,9,9,10,10,11,11,12,12,13,13,14,14,15,15,16,16,17,17,18,18,19,19,20,20,21,21,22,22,23,23,24,24,25,25,26,26,27,27,28,28,30,30],"right_children":[2,4,6,8,10,12,14,16,18,20,22,24,26,28,30,32,34,36,38,40,42,44,46,48,50,52,54,56,58,-1,60,-1,-1,-1,-1,-1,-1,-1,-1,-1,-1,-1,-1,-1,-1,-1,-1,-1,-1,-1,-1,-1,-1,-1,-1,-1,-1,-1,-1,-1,-1],"split_conditions":[1.4076498E-1,5.171636E-1,2.3653683E-1,8.5095525E-2,-8.5995E-2,4.4978213E-1,-2.3693815E-2,-5.234121E-2,5.2426445E-1,9.8394714E-2,9.112507E-2,1.5775463E-1,3.9035094E-1,2.627763E-1,-8.508891E-2,1.172325E-2,-4.9958885E-2,1.686343E-1,-8.699304E-2,7.868587E-2,6.2725425E-1,2.6209003E-1,1.6569333E-1,3.0789942E-2,4.928917E-3,4.6666652E-2,2.278088E-1,9.5244884E-2,5.2233875E-1,2.682564E-2,7.502323E-2,-7.2008274E-2,2.7277112E-2,-4.7798693E-2,-8.710283E-2,-8.352472E-2,2.8257245E-2,6.4485304E-2,-5.90869E-2,-9.714427E-4,-6.2133905E-2,7.18624E-2,-5.3642716E-2,-9.068632E-2,6.0811765E-2,2.8898498E-2,-7.6497756E-2,8.9688115E-2,-8.058092E-3,-9.118732E-2,6.1595943E-2,5.912563E-2,-6.7704576E-3,4.5081484E-4,7.9275556E-2,-1.2209103E-2,7.882488E-2,8.412088E-2,-8.814332E-2,2.7488524E-3,-8.497094E-2],"split_indices":[18,29,2,28,16,9,15,15,9,25,18,19,0,30,32,34,15,19,16,28,30,2,2,20,17,6,29,25,0,0,28,0,0,0,0,0,0,0,0,0,0,0,0,0,0,0,0,0,0,0,0,0,0,0,0,0,0,0,0,0,0],"split_type":[0,0,0,0,0,0,0,0,0,0,0,0,0,0,0,0,0,0,0,0,0,0,0,0,0,0,0,0,0,0,0,0,0,0,0,0,0,0,0,0,0,0,0,0,0,0,0,0,0,0,0,0,0,0,0,0,0,0,0,0,0],"sum_hessian":[1.5847604E4,1.0283712E4,5.563891E3,6.865084E3,3.4186284E3,2.1131057E3,3.4507854E3,5.4493438E3,1.4157401E3,6.374649E2,2.7811636E3,2.6664813E2,1.8464575E3,3.430604E3,2.018128E1,4.639822E3,8.0952167E2,1.2580165E3,1.577237E2,5.8135785E2,5.6107094E1,1.9796869E3,8.014767E2,2.117538E1,2.4547276E2,9.2122314E2,9.2523444E2,1.5183101E2,3.278773E3,1.7480645E0,1.8433216E1,4.318262E2,4.2079956E3,1.5292078E2,6.566009E2,1.2168818E3,4.1134647E1,1.1904847E2,3.867523E1,1.27469864E2,4.5388797E2,4.4124653E1,1.198244E1,1.9779408E3,1.7461371E0,3.4485855E1,7.6699084E2,1.7933867E1,3.2415147E0,2.4348573E2,1.9870371E0,2.3096999E2,6.902531E2,5.2387882E1,8.7284656E2,6.478388E1,8.7047134E1,3.274554E3,4.2190614E0,1.4950873E0,1.6938128E1],"tree_param":{"num_deleted":"0","num_feature":"40","num_nodes":"61","size_leaf_vector":"1"}},{"base_weights":[2.5439695E-3,-6.2171215E-1,1.1545559E0,-1.7023978E-1,-1.4273185E0,5.0696707E-1,1.5532383E0,-1.6050932E0,1.274354E-1,-1.6209158E0,-7.6712304E-1,-1.5410786E0,7.931198E-1,-5.626397E-1,1.5747364E0,-2.7792248E-1,-1.7246225E0,-1.318713E0,4.4058406E-1,-1.7357372E0,-1.337021E0,-1.9562112E-1,-1.4252083E0,9.443558E-1,-1.7234968E0,1.6369109E-1,1.4426191E0,3.8785452E-1,-8.7346405E-2,1.0660952E0,1.6401482E0,-5.919401E-2,8.548276E-2,2.6737142E-2,-8.744285E-2,-8.515014E-2,-3.6680635E-2,3.006469E-2,-7.540621E-2,-8.697944E-2,7.201161E-2,2.9515147E-2,-7.530778E-2,-6.768984E-2,4.3626275E-2,4.7787372E-2,-7.725948E-2,8.0659054E-2,-3.0866822E-2,-8.7277696E-2,5.4918885E-2,-2.742578E-3,8.6658455E-2,1.900628E-2,7.7479966E-2,-7.9782195E-2,8.344569E-2,-1.1682406E-2,6.23712E-2,6.850525E-2,8.477989E-2],"categories":[],"categories_nodes":[],"categories_segments":[],"categories_sizes":[],"default_left":[0,0,0,0,0,0,0,0,0,0,0,0,0,0,0,0,0,0,0,0,0,0,0,0,0,0,0,0,0,0,0,0,0,0,0,0,0,0,0,0,0,0,0,0,0,0,0,0,0,0,0,0,0,0,0,0,0,0,0,0,0],"id":3,"left_children":[1,3,5,7,9,11,13,15,17,19,21,23,25,27,29,31,33,35,37,39,41,43,45,47,49,51,53,55,-1,57,59,-1,-1,-1,-1,-1,-1,-1,-1,-1,-1,-1,-1,-1,-1,-1,-1,-1,-1,-1,-1,-1,-1,-1,-1,-1,-1,-1,-1,-1,-1],"loss_changes":[1.1314795E4,3.7110857E3,1.4268154E3,2.7937861E3,4.6713867E2,1.2369056E3,1.5654199E2,1.7780103E2,2.4540247E3,9.001953E1,3.129532E2,1.1897424E2,7.563385E2,4.025065E1,1.1096777E2,1.7136804E2,5.737549E1,2.1563391E2,1.3958237E3,2.7136719E1,2.6823145E2,5.540502E2,1.1201459E2,2.0155449E1,1.694751E1,3.228489E2,1.02924194E2,5.429851E1,0E0,9.1944885E1,4.2597656E1,0E0,0E0,0E0,0E0,0E0,0E0,0E0,0E0,0E0,0E0,0E0,0E0,0E0,0E0,0E0,0E0,0E0,0E0,0E0,0E0,0E0,0E0,0E0,0E0,0E0,0E0,0E0,0E0,0E0,0E0],"parents":[2147483647,0,0,1,1,2,2,3,3,4,4,5,5,6,6,7,7,8,8,9,9,10,10,11,11,12,12,13,13,14,14,15,15,16,16,17,17,18,18,19,19,20,20,21,21,22,22,23,23,24,24,25,25,26,26,27,27,29,29,30,30],"right_children":[2,4,6,8,10,12,14,16,18,20,22,24,26,28,30,32,34,36,38,40,42,44,46,48,50,52,54,56,-1,58,60,-1,-1,-1,-1,-1,-1,-1,-1,-1,-1,-1,-1,-1,-1,-1,-1,-1,-1,-1,-1,-1,-1,-1,-1,-1,-1,-1,-1,-1,-1],"split_conditions":[1.4076498E-1,5.089346E-1,2.3653683E-1,4.511621E-1,1.2404521E-1,4.4920018E-1,-3.532186E-2,5.454683E-1,1.0722578E-2,9.2297316E-2,5.418837E-1,1.5818453E-1,3.9035094E-1,4.7319084E-1,3.5088462E-1,1.2701589E-1,1.3802056E-1,1.1399466E-1,-1.7912418E-2,8.118199E-2,6.6603266E-2,1.560068E-2,1.2715918E-1,3.3491603E-1,-7.170229E-2,3.931349E-1,9.012595E-2,3.829332E-1,-8.7346405E-2,3.9817703E-1,5.213512E-1,-5.919401E-2,8.548276E-2,2.6737142E-2,-8.744285E-2,-8.515014E-2,-3.6680635E-2,3.006469E-2,-7.540621E-2,-8.697944E-2,7.201161E-2,2.9515147E-2,-7.530778E-2,-6.768984E-2,4.3626275E-2,4.7787372E-2,-7.725948E-2,8.0659054E-2,-3.0866822E-2,-8.7277696E-2,5.4918885E-2,-2.742578E-3,8.6658455E-2,1.900628E-2,7.7479966E-2,-7.9782195E-2,8.344569E-2,-1.1682406E-2,6.23712E-2,6.850525E-2,8.477989E-2],"split_indices":[18,29,2,5,18,5,17,8,7,18,5,19,0,0,31,18,19,19,12,14,24,34,19,1,13,1,38,3,0,3,8,0,0,0,0,0,0,0,0,0,0,0,0,0,0,0,0,0,0,0,0,0,0,0,0,0,0,0,0,0,0],"split_type":[0,0,0,0,0,0,0,0,0,0,0,0,0,0,0,0,0,0,0,0,0,0,0,0,0,0,0,0,0,0,0,0,0,0,0,0,0,0,0,0,0,0,0,0,0,0,0,0,0,0,0,0,0,0,0,0,0,0,0,0,0],"sum_hessian":[1.5731557E4,1.0203117E4,5.5284395E3,6.5395044E3,3.663613E3,2.107481E3,3.4209583E3,1.1228333E3,5.4166714E3,2.8317642E3,8.318489E2,2.578215E2,1.8496594E3,3.415548E1,3.3868027E3,9.3045456E1,1.0297877E3,9.635768E2,4.453094E3,2.0126378E3,8.1912634E2,4.4590674E2,3.8594214E2,1.7343315E1,2.404782E2,9.399791E2,9.096803E2,1.9321112E1,1.4834367E1,3.878878E2,2.998915E3,6.419094E1,2.8854513E1,1.0704998E1,1.01908276E3,5.804384E2,3.8313837E2,4.1144663E3,3.3862805E2,2.0106517E3,1.9860903E0,6.5883224E1,7.5324316E2,2.1380917E2,2.3209756E2,1.8181204E1,3.6776093E2,1.2119802E1,5.223512E0,2.3899155E2,1.486649E0,8.2593634E2,1.1404281E2,8.363161E1,8.260487E2,7.4855175E0,1.1835593E1,4.7454075E1,3.4043372E2,5.1526263E2,2.4836523E3],"tree_param":{"num_deleted":"0","num_feature":"40","num_nodes":"61","size_leaf_vector":"1"}},{"base_weights":[4.8998855E-3,-5.936245E-1,1.1162822E0,-1.67325E0,-2.9913986E-1,5.043038E-1,1.4916673E0,-1.6765494E0,1.9347372E-2,-1.5255222E0,-8.373796E-2,-1.4872761E0,7.7472496E-1,1.5094048E0,-1.3100438E0,-1.6892998E0,-1.2310188E0,-6.3901775E-2,7.07813E-2,3.3799517E-1,-1.6419587E0,-1.4794512E0,1.5131213E-1,9.7051185E-1,-1.6654769E0,1.887681E-1,1.4159019E0,6.9051796E-1,1.5479124E0,2.458051E-2,-1.4905465E0,-8.454742E-2,-4.701561E-2,-7.924201E-3,-8.7400526E-2,-5.4487657E-2,6.866145E-2,4.133186E-2,-8.326061E-2,-7.910085E-2,7.709142E-2,3.0860398E-2,-2.4467153E-2,7.7203326E-2,-2.3823243E-2,-8.420413E-2,5.0350476E-2,5.7507463E-2,-6.3228174E-3,2.2271436E-2,7.589675E-2,-4.1806668E-2,6.2423956E-2,6.73473E-2,8.187012E-2,-6.6421367E-3,-7.862233E-2],"categories":[],"categories_nodes":[],"categories_segments":[],"categories_sizes":[],"default_left":[0,0,0,0,0,0,0,0,0,0,0,0,0,0,0,0,0,0,0,0,0,0,0,0,0,0,0,0,0,0,0,0,0,0,0,0,0,0,0,0,0,0,0,0,0,0,0,0,0,0,0,0,0,0,0,0,0],"id":4,"left_children":[1,3,5,7,9,11,13,15,17,19,21,23,25,27,29,31,33,-1,-1,35,37,39,41,43,45,47,49,51,53,-1,55,-1,-1,-1,-1,-1,-1,-1,-1,-1,-1,-1,-1,-1,-1,-1,-1,-1,-1,-1,-1,-1,-1,-1,-1,-1,-1],"loss_changes":[1.0403247E4,3.2313445E3,1.2568584E3,1.2197266E1,2.1099968E3,1.122877E3,1.705708E2,1.0270508E1,1.1276992E1,2.594856E2,2.2295957E3,1.1082239E2,6.889436E2,1.05251465E2,7.8476715E0,1.0166016E0,3.530638E1,0E0,0E0,1.0644756E2,6.585913E1,3.05989E2,1.7365515E3,1.5249336E1,1.327417E1,2.9097095E2,8.604602E1,1.3157117E2,5.5693848E1,0E0,2.0299416E0,0E0,0E0,0E0,0E0,0E0,0E0,0E0,0E0,0E0,0E0,0E0,0E0,0E0,0E0,0E0,0E0,0E0,0E0,0E0,0E0,0E0,0E0,0E0,0E0,0E0,0E0],"parents":[2147483647,0,0,1,1,2,2,3,3,4,4,5,5,6,6,7,7,8,8,9,9,10,10,11,11,12,12,13,13,14,14,15,15,16,16,19,19,20,20,21,21,22,22,23,23,24,24,25,25,26,26,27,27,28,28,30,30],"right_children":[2,4,6,8,10,12,14,16,18,20,22,24,26,28,30,32,34,-1,-1,36,38,40,42,44,46,48,50,52,54,-1,56,-1,-1,-1,-1,-1,-1,-1,-1,-1,-1,-1,-1,-1,-1,-1,-1,-1,-1,-1,-1,-1,-1,-1,-1,-1,-1],"split_conditions":[1.4076498E-1,8.494574E-2,2.3653683E-1,8.118199E-2,4.5309663E-1,4.4920018E-1,-2.3693815E-2,8.367938E-2,6.102604E-1,4.0647796E-1,-5.6107223E-2,1.5818453E-1,3.9175332E-1,2.627763E-1,-8.508891E-2,7.777524E-2,5.242801E-1,-6.3901775E-2,7.07813E-2,3.8175404E-2,2.9530686E-1,4.0614158E-2,4.9349165E-1,3.3491603E-1,-7.170229E-2,4.657042E-2,9.012595E-2,8.592127E-2,2.4299312E-1,2.458051E-2,7.577004E-2,-8.454742E-2,-4.701561E-2,-7.924201E-3,-8.7400526E-2,-5.4487657E-2,6.866145E-2,4.133186E-2,-8.326061E-2,-7.910085E-2,7.709142E-2,3.0860398E-2,-2.4467153E-2,7.7203326E-2,-2.3823243E-2,-8.420413E-2,5.0350476E-2,5.7507463E-2,-6.3228174E-3,2.2271436E-2,7.589675E-2,-4.1806668E-2,6.2423956E-2,6.73473E-2,8.187012E-2,-6.6421367E-3,-7.862233E-2],"split_indices":[18,18,2,14,5,5,15,18,0,0,12,19,0,30,32,14,1,0,0,10,1,6,1,1,13,6,38,25,2,0,28,0,0,0,0,0,0,0,0,0,0,0,0,0,0,0,0,0,0,0,0,0,0,0,0,0,0],"split_type":[0,0,0,0,0,0,0,0,0,0,0,0,0,0,0,0,0,0,0,0,0,0,0,0,0,0,0,0,0,0,0,0,0,0,0,0,0,0,0,0,0,0,0,0,0,0,0,0,0,0,0,0,0,0,0,0,0],"sum_hessian":[1.5637529E4,1.0164175E4,5.473354E3,2.1772742E3,7.986901E3,2.0818018E3,3.391552E3,2.1730476E3,4.2264585E0,1.1923307E3,6.7945703E3,2.4834044E2,1.8334613E3,3.3706738E3,2.087833E1,2.1098745E3,6.317303E1,2.2347114E0,1.9917469E0,7.0006294E1,1.1223245E3,9.785724E2,5.815998E3,1.6487995E1,2.3185245E2,9.586591E2,8.748021E2,1.5223482E2,3.218439E3,1.744305E0,1.9134026E1,2.1039856E3,5.888915E0,2.0971912E1,4.220112E1,2.9402716E1,4.0603577E1,1.0150911E1,1.1121735E3,9.469035E2,3.1668922E1,3.3672852E3,2.448713E3,1.1759606E1,4.7283883E0,2.3061674E2,1.2356986E0,2.3606186E2,7.225973E2,8.3734825E1,7.9106726E2,4.0613274E1,1.11621544E2,9.96551E2,2.221888E3,1.2377182E0,1.7896307E1],"tree_param":{"num_deleted":"0","num_feature":"40","num_nodes":"57","size_leaf_vector":"1"}},{"base_weights":[2.4693334E-3,-5.747806E-1,1.068407E0,-1.6652353E-1,-1.3923652E0,-1.0602056E0,1.2070252E0,-1.483849E0,9.9229775E-2,-1.5357581E0,-9.063971E-1,-1.4346483E0,3.5954708E-1,8.481703E-1,1.569659E0,-1.6021323E0,4.4489342E-1,3.3300263E-1,-1.4186485E0,-9.709174E-1,-1.6056583E0,-1.576632E0,-3.8052204E-1,8.892984E-2,-1.5480429E0,-1.2617446E0,1.5701705E0,1.4515901E0,6.002788E-1,1.5802134E0,-1.1339192E0,-3.979152E-2,-8.196697E-2,-3.7576014E-3,8.544247E-2,-6.5909036E-2,2.563155E-2,-4.3600976E-2,-8.042633E-2,-8.083301E-2,-2.8889483E-2,-5.345265E-2,-8.088805E-2,-8.078976E-2,6.013578E-2,2.9240442E-2,-6.949311E-2,-7.884848E-2,2.7386958E-2,-7.180294E-2,6.4661056E-2,-2.6185507E-2,8.386146E-2,3.765452E-2,7.8550264E-2,5.4592587E-4,4.8692863E-2,7.928439E-2,-1.763933E-2,-7.690258E-2,5.1791232E-2],"categories":[],"categories_nodes":[],"categories_segments":[],"categories_sizes":[],"default_left":[0,0,0,0,0,0,0,0,0,0,0,0,0,0,0,0,0,0,0,0,0,0,0,0,0,0,0,0,0,0,0,0,0,0,0,0,0,0,0,0,0,0,0,0,0,0,0,0,0,0,0,0,0,0,0,0,0,0,0,0,0],"id":5,"left_children":[1,3,5,7,9,11,13,15,17,19,21,23,25,27,29,31,33,35,37,39,41,43,45,-1,47,49,51,53,55,57,59,-1,-1,-1,-1,-1,-1,-1,-1,-1,-1,-1,-1,-1,-1,-1,-1,-1,-1,-1,-1,-1,-1,-1,-1,-1,-1,-1,-1,-1,-1],"loss_changes":[9.535038E3,3.3551191E3,1.6075557E3,2.3476995E3,2.3189404E2,1.7773877E2,6.638369E2,2.5754028E2,1.9808043E3,1.0044629E2,2.6909827E2,9.89436E1,1.4010565E2,3.837484E2,7.430371E1,3.052295E1,4.340083E1,1.4353037E3,7.592444E1,7.193402E1,1.3191406E1,3.852716E1,4.1986783E2,0E0,1.6355042E1,1.5502281E1,1.0009659E1,6.121045E1,4.0164172E2,2.7350098E1,1.0768706E1,0E0,0E0,0E0,0E0,0E0,0E0,0E0,0E0,0E0,0E0,0E0,0E0,0E0,0E0,0E0,0E0,0E0,0E0,0E0,0E0,0E0,0E0,0E0,0E0,0E0,0E0,0E0,0E0,0E0,0E0],"parents":[2147483647,0,0,1,1,2,2,3,3,4,4,5,5,6,6,7,7,8,8,9,9,10,10,11,11,12,12,13,13,14,14,15,15,16,16,17,17,18,18,19,19,20,20,21,21,22,22,24,24,25,25,26,26,27,27,28,28,29,29,30,30],"right_children":[2,4,6,8,10,12,14,16,18,20,22,24,26,28,30,32,34,36,38,40,42,44,46,-1,48,50,52,54,56,58,60,-1,-1,-1,-1,-1,-1,-1,-1,-1,-1,-1,-1,-1,-1,-1,-1,-1,-1,-1,-1,-1,-1,-1,-1,-1,-1,-1,-1,-1,-1],"split_conditions":[2.2594309E-1,5.089346E-1,4.0614158E-2,4.410444E-1,3.7829423E-1,5.2426445E-1,4.1806614E-1,1.0682821E-2,-5.234121E-2,5.115334E-1,-5.4410324E-2,8.0102794E-2,4.712832E-2,-1.0263371E-2,6.041348E-1,4.0260348E-1,2.1361315E-1,1.172325E-2,6.1860216E-1,2.7108312E-2,4.9253678E-1,4.0614158E-2,2.2755176E-2,8.892984E-2,-6.155497E-2,7.33767E-1,1.8260267E-1,2.2883044E-1,5.003286E-1,5.2233875E-1,7.8586924E-1,-3.979152E-2,-8.196697E-2,-3.7576014E-3,8.544247E-2,-6.5909036E-2,2.563155E-2,-4.3600976E-2,-8.042633E-2,-8.083301E-2,-2.8889483E-2,-5.345265E-2,-8.088805E-2,-8.078976E-2,6.013578E-2,2.9240442E-2,-6.949311E-2,-7.884848E-2,2.7386958E-2,-7.180294E-2,6.4661056E-2,-2.6185507E-2,8.386146E-2,3.765452E-2,7.8550264E-2,5.4592587E-4,4.8692863E-2,7.928439E-2,-1.763933E-2,-7.690258E-2,5.1791232E-2],"split_indices":[2,29,6,9,3,9,3,17,15,31,12,24,10,20,20,0,2,34,9,6,9,6,11,0,12,9,31,2,9,0,9,0,0,0,0,0,0,0,0,0,0,0,0,0,0,0,0,0,0,0,0,0,0,0,0,0,0,0,0,0,0],"split_type":[0,0,0,0,0,0,0,0,0,0,0,0,0,0,0,0,0,0,0,0,0,0,0,0,0,0,0,0,0,0,0,0,0,0,0,0,0,0,0,0,0,0,0,0,0,0,0,0,0,0,0,0,0,0,0,0,0,0,0,0,0],"sum_hessian":[1.5494258E4,1.0051441E4,5.442816E3,6.70469E3,3.3467517E3,3.323665E2,5.110449E3,1.1247548E3,5.5799355E3,2.582563E3,7.641885E2,2.629944E2,6.93721E1,2.570286E3,2.5401633E3,1.0599226E3,6.483212E1,4.835922E3,7.4401373E2,2.860414E2,2.2965217E3,3.3510043E2,4.2908807E2,8.464083E0,2.545303E2,2.9638023E1,3.9734074E1,7.47022E2,1.8232639E3,2.5306992E3,9.464063E0,4.7740578E1,1.01218207E3,4.6599598E1,1.8232523E1,4.7385007E2,4.362072E3,1.9325517E2,5.5075854E2,1.0706558E2,1.7897585E2,5.262375E1,2.243898E3,3.3085703E2,4.2433867E0,2.1954054E2,2.0954755E2,2.5130919E2,3.2211058E0,2.8155064E1,1.4829607E0,1.743448E0,3.7990627E1,1.1013154E2,6.3689044E2,7.077467E2,1.1155173E3,2.5237314E3,6.9677835E0,8.223505E0,1.2405576E0],"tree_param":{"num_deleted":"0","num_feature":"40","num_nodes":"61","size_leaf_vector":"1"}},{"base_weights":[2.8216855E-3,-5.484004E-1,1.0302355E0,-1.4806077E0,-2.4011329E-1,4.6885848E-1,1.3970017E0,-1.4929875E0,1.1671059E0,3.2780576E-1,-8.421397E-1,-1.3838227E0,7.1293676E-1,7.49221E-1,1.4783975E0,-1.5189664E0,-4.4964987E-1,9.2846915E-2,-5.8163404E-2,-1.6468757E0,5.0258195E-1,-2.574726E-1,-1.3728516E0,9.6606016E-1,-1.5698904E0,1.5853558E-1,1.3098917E0,-7.728653E-1,9.057932E-1,1.4877473E0,-7.378902E-2,-7.641185E-2,2.731373E-2,-7.891401E-2,4.5372814E-2,-8.481002E-2,1.28634935E-2,7.332527E-2,7.325104E-3,-6.8650626E-2,1.1954062E-2,-7.137725E-2,3.8545713E-2,7.705303E-2,-8.449814E-3,-7.991818E-2,4.7939427E-2,-1.8676993E-3,7.9061255E-2,2.8643353E-2,7.280991E-2,-6.1374683E-2,5.723245E-2,5.5812325E-2,-4.1290703E-3,7.506012E-2,2.9012E-2],"categories":[],"categories_nodes":[],"categories_segments":[],"categories_sizes":[],"default_left":[0,0,0,0,0,0,0,0,0,0,0,0,0,0,0,0,0,0,0,0,0,0,0,0,0,0,0,0,0,0,0,0,0,0,0,0,0,0,0,0,0,0,0,0,0,0,0,0,0,0,0,0,0,0,0,0,0],"id":6,"left_children":[1,3,5,7,9,11,13,15,17,19,21,23,25,27,29,31,33,-1,-1,35,37,39,41,43,45,47,49,51,53,55,-1,-1,-1,-1,-1,-1,-1,-1,-1,-1,-1,-1,-1,-1,-1,-1,-1,-1,-1,-1,-1,-1,-1,-1,-1,-1,-1],"loss_changes":[8.6733125E3,2.864116E3,1.1003813E3,8.29292E1,2.5616057E3,9.5723584E2,1.6940625E2,6.615137E1,2.1592787E1,1.331508E3,1.1281038E3,1.0929669E2,6.1839575E2,8.7213684E1,8.151953E1,4.688965E1,9.536421E1,0E0,0E0,2.990332E1,1.2158213E3,9.595397E2,2.245935E2,1.2468679E1,1.8005798E1,2.7046082E2,9.620361E1,3.139285E1,6.865552E1,3.409131E1,0E0,0E0,0E0,0E0,0E0,0E0,0E0,0E0,0E0,0E0,0E0,0E0,0E0,0E0,0E0,0E0,0E0,0E0,0E0,0E0,0E0,0E0,0E0,0E0,0E0,0E0,0E0],"parents":[2147483647,0,0,1,1,2,2,3,3,4,4,5,5,6,6,7,7,8,8,9,9,10,10,11,11,12,12,13,13,14,14,15,15,16,16,19,19,20,20,21,21,22,22,23,23,24,24,25,25,26,26,27,27,28,28,29,29],"right_children":[2,4,6,8,10,12,14,16,18,20,22,24,26,28,30,32,34,-1,-1,36,38,40,42,44,46,48,50,52,54,56,-1,-1,-1,-1,-1,-1,-1,-1,-1,-1,-1,-1,-1,-1,-1,-1,-1,-1,-1,-1,-1,-1,-1,-1,-1,-1,-1],"split_conditions":[1.4076498E-1,1.172325E-2,2.3706046E-1,2.6692387E-1,2.4549395E-2,4.4920018E-1,1.6622841E-2,-4.047517E-2,2.9487568E-1,2.7151662E-1,4.6844625E-1,1.5818453E-1,3.911493E-1,1.02678835E-1,7.379402E-1,1.1977456E-1,2.7439386E-1,9.2846915E-2,-5.8163404E-2,4.8268396E-1,1.0645759E-1,4.6658427E-1,4.7361463E-2,3.0789942E-2,-7.2623655E-2,3.9379227E-1,1.3722479E-2,4.099006E-1,7.3980377E-3,2.4693495E-2,-7.378902E-2,-7.641185E-2,2.731373E-2,-7.891401E-2,4.5372814E-2,-8.481002E-2,1.28634935E-2,7.332527E-2,7.325104E-3,-6.8650626E-2,1.1954062E-2,-7.137725E-2,3.8545713E-2,7.705303E-2,-8.449814E-3,-7.991818E-2,4.7939427E-2,-1.8676993E-3,7.9061255E-2,2.8643353E-2,7.280991E-2,-6.1374683E-2,5.723245E-2,5.5812325E-2,-4.1290703E-3,7.506012E-2,2.9012E-2],"split_indices":[18,34,2,2,34,5,11,12,0,3,30,19,0,19,20,20,3,0,0,0,18,5,6,20,13,1,11,0,26,26,0,0,0,0,0,0,0,0,0,0,0,0,0,0,0,0,0,0,0,0,0,0,0,0,0,0,0],"split_type":[0,0,0,0,0,0,0,0,0,0,0,0,0,0,0,0,0,0,0,0,0,0,0,0,0,0,0,0,0,0,0,0,0,0,0,0,0,0,0,0,0,0,0,0,0,0,0,0,0,0,0,0,0,0,0,0,0],"sum_hessian":[1.5312861E4,9.966278E3,5.3465835E3,2.4758699E3,7.490408E3,2.1136633E3,3.2329204E3,2.4647815E3,1.1088247E1,3.8546223E3,3.6357861E3,2.4550246E2,1.8681608E3,3.6202014E2,2.8709001E3,2.404455E3,6.0326473E1,8.712384E0,2.3758628E0,3.127412E2,3.541881E3,1.7306611E3,1.905125E3,1.7705423E1,2.2779703E2,9.692598E2,8.98901E2,3.3399284E1,3.2862085E2,2.8623374E3,8.562713E0,2.393969E3,1.0486117E1,3.2846706E1,2.7479769E1,3.0495102E2,7.7901735E0,9.5460535E2,2.5872756E3,5.3253107E2,1.19813E3,1.8580549E3,4.707005E1,1.1514617E1,6.1908064E0,2.2562437E2,2.17265E0,8.528104E2,1.1644941E2,1.4969954E2,7.492014E2,2.7289093E1,6.11019E0,2.7082507E2,5.7795784E1,2.8198748E3,4.246275E1],"tree_param":{"num_deleted":"0","num_feature":"40","num_nodes":"57","size_leaf_vector":"1"}},{"base_weights":[-3.9906413E-4,-5.3347737E-1,9.8072326E-1,-1.5207955E-1,-1.3118005E0,-9.7745365E-1,1.1114463E0,-1.360382E0,1.5977931E-1,-7.877122E-1,-1.451134E0,4.7041038E-1,-1.42929E0,7.665352E-1,1.4743911E0,-2.6846892E-1,-1.5377975E0,-1.1947048E0,4.6760413E-1,-1.4552119E0,-9.8197855E-2,-4.580073E-1,-1.4945592E0,1.0000945E0,-1.2835057E0,-1.501451E0,9.4771996E-2,1.3482571E0,5.311277E-1,1.48927E0,-2.8031436E-1,-5.786971E-2,4.9578376E-2,-2.16075E-3,-7.821568E-2,-7.679184E-2,-3.5702318E-2,3.0756196E-2,-6.758589E-2,-7.576085E-2,7.337529E-2,3.368105E-2,-6.865957E-2,-7.364192E-2,5.113528E-3,-5.9955575E-2,-7.654263E-2,-6.911468E-2,5.711242E-2,7.250093E-3,-7.27428E-2,-7.7559076E-2,4.2654105E-2,-5.8785636E-2,7.68666E-2,4.5121588E-2,7.795243E-2,-2.00845E-4,4.4233467E-2,7.668681E-3,7.489587E-2,-4.8831563E-2,6.7603365E-2],"categories":[],"categories_nodes":[],"categories_segments":[],"categories_sizes":[],"default_left":[0,0,0,0,0,0,0,0,0,0,0,0,0,0,0,0,0,0,0,0,0,0,0,0,0,0,0,0,0,0,0,0,0,0,0,0,0,0,0,0,0,0,0,0,0,0,0,0,0,0,0,0,0,0,0,0,0,0,0,0,0,0,0],"id":7,"left_children":[1,3,5,7,9,11,13,15,17,19,21,23,25,27,29,31,33,35,37,39,41,43,45,47,49,51,53,55,57,59,61,-1,-1,-1,-1,-1,-1,-1,-1,-1,-1,-1,-1,-1,-1,-1,-1,-1,-1,-1,-1,-1,-1,-1,-1,-1,-1,-1,-1,-1,-1,-1,-1],"loss_changes":[7.9365166E3,2.9185283E3,1.3685859E3,2.4871846E3,2.3497168E2,2.1972937E2,6.258384E2,2.6189893E2,2.1881887E3,3.134162E2,1.0942383E2,7.59721E1,2.823645E1,3.5123462E2,6.4103516E1,2.1448924E2,4.6085938E1,1.5826111E2,1.1484341E3,6.2920654E1,3.3175323E2,6.1787094E1,2.4389648E1,2.268089E1,4.8826447E0,2.9889587E1,2.469668E1,6.8113525E1,3.4648016E2,2.7713867E1,2.5590075E1,0E0,0E0,0E0,0E0,0E0,0E0,0E0,0E0,0E0,0E0,0E0,0E0,0E0,0E0,0E0,0E0,0E0,0E0,0E0,0E0,0E0,0E0,0E0,0E0,0E0,0E0,0E0,0E0,0E0,0E0,0E0,0E0],"parents":[2147483647,0,0,1,1,2,2,3,3,4,4,5,5,6,6,7,7,8,8,9,9,10,10,11,11,12,12,13,13,14,14,15,15,16,16,17,17,18,18,19,19,20,20,21,21,22,22,23,23,24,24,25,25,26,26,27,27,28,28,29,29,30,30],"right_children":[2,4,6,8,10,12,14,16,18,20,22,24,26,28,30,32,34,36,38,40,42,44,46,48,50,52,54,56,58,60,62,-1,-1,-1,-1,-1,-1,-1,-1,-1,-1,-1,-1,-1,-1,-1,-1,-1,-1,-1,-1,-1,-1,-1,-1,-1,-1,-1,-1,-1,-1,-1,-1],"split_conditions":[2.2542477E-1,5.089346E-1,4.0614158E-2,4.6176597E-1,5.273826E-1,1.4308828E-1,4.1806614E-1,5.522978E-1,1.0722578E-2,5.3077626E-1,4.966994E-1,-5.667551E-2,5.270537E-1,-1.0263371E-2,3.4221885E-1,3.8780835E-2,1.4447016E-1,1.1399466E-1,-5.693239E-2,2.2303751E-1,5.733742E-1,2.7108312E-2,5.211147E-1,1.4470775E-1,1.6207606E-2,-6.155497E-2,5.342669E-1,-8.261898E-2,5.003286E-1,2.2695082E-1,-1.03272796E-1,-5.786971E-2,4.9578376E-2,-2.16075E-3,-7.821568E-2,-7.679184E-2,-3.5702318E-2,3.0756196E-2,-6.758589E-2,-7.576085E-2,7.337529E-2,3.368105E-2,-6.865957E-2,-7.364192E-2,5.113528E-3,-5.9955575E-2,-7.654263E-2,-6.911468E-2,5.711242E-2,7.250093E-3,-7.27428E-2,-7.7559076E-2,4.2654105E-2,-5.8785636E-2,7.68666E-2,4.5121588E-2,7.795243E-2,-2.00845E-4,4.4233467E-2,7.668681E-3,7.489587E-2,-4.8831563E-2,6.7603365E-2],"split_indices":[2,29,6,5,5,19,3,8,7,8,31,12,9,20,20,10,19,19,35,2,31,6,31,31,11,12,5,33,9,2,33,0,0,0,0,0,0,0,0,0,0,0,0,0,0,0,0,0,0,0,0,0,0,0,0,0,0,0,0,0,0,0,0],"split_type":[0,0,0,0,0,0,0,0,0,0,0,0,0,0,0,0,0,0,0,0,0,0,0,0,0,0,0,0,0,0,0,0,0,0,0,0,0,0,0,0,0,0,0,0,0,0,0,0,0,0,0,0,0,0,0,0,0,0,0,0,0,0,0],"sum_hessian":[1.5172548E4,9.831308E3,5.3412397E3,6.598885E3,3.2324233E3,3.3384833E2,5.007391E3,1.3530618E3,5.2458228E3,6.8027893E2,2.5521443E3,7.939476E1,2.5445358E2,2.5690771E3,2.438314E3,1.8947028E2,1.1635916E3,9.708831E2,4.27494E3,3.4509323E2,3.3518567E2,1.074028E2,2.4447417E3,6.130914E1,1.808562E1,2.4296458E2,1.1489E1,7.3876587E2,1.8303113E3,2.4179622E3,2.0351782E1,1.1114301E2,7.8327255E1,2.0329823E1,1.1432617E3,5.665775E2,4.0430557E2,3.954917E3,3.2002277E2,3.3862268E2,6.470541E0,2.0908655E2,1.2609912E2,3.7624607E1,6.97782E1,2.71186E2,2.1735557E3,2.9610093E0,5.8348133E1,1.9535003E0,1.613212E1,2.3827318E2,4.6914015E0,6.207203E0,5.2817974E0,2.3885892E2,4.9990692E2,7.28537E2,1.1017743E3,1.5671525E1,2.4022908E3,1.4547879E1,5.803902E0],"tree_param":{"num_deleted":"0","num_feature":"40","num_nodes":"63","size_leaf_vector":"1"}},{"base_weights":[-2.6498598E-3,-5.2147174E-1,9.446734E-1,-1.4904788E0,-2.7358553E-1,-9.358326E-1,1.0671133E0,-1.5040286E0,-1.0190483E0,-1.3247931E0,-4.260127E-2,4.8134443E-1,-1.38457E0,7.4139965E-1,1.4228123E0,-7.5273134E-2,2.1380372E-2,1.050071E-1,-1.5160354E0,4.9220908E-1,-1.4279878E0,-1.4031651E0,1.3367417E-1,-1.1154193E0,9.846712E-1,-1.4853426E0,4.5887393E-1,4.0021536E-1,1.1730261E0,1.4377235E0,-3.3943245E-1,8.535998E-2,-6.804969E-2,-7.830946E-2,-8.819101E-3,-6.0539644E-2,7.045376E-2,-7.22607E-2,8.1365794E-2,-7.4890845E-2,6.359644E-2,2.7750615E-2,-2.1204865E-2,-6.614369E-2,5.559027E-2,7.657062E-2,1.0004995E-2,-7.678612E-2,3.1105906E-2,8.1552684E-2,-6.6844E-2,5.996548E-2,4.079235E-3,6.601223E-2,-7.337718E-2,-7.750675E-3,7.271036E-2,6.0638767E-2,-4.7446862E-2],"categories":[],"categories_nodes":[],"categories_segments":[],"categories_sizes":[],"default_left":[0,0,0,0,0,0,0,0,0,0,0,0,0,0,0,0,0,0,0,0,0,0,0,0,0,0,0,0,0,0,0,0,0,0,0,0,0,0,0,0,0,0,0,0,0,0,0,0,0,0,0,0,0,0,0,0,0,0,0],"id":8,"left_children":[1,3,5,7,9,11,13,15,17,19,21,23,25,27,29,-1,-1,31,33,35,37,39,41,43,45,47,49,51,53,55,57,-1,-1,-1,-1,-1,-1,-1,-1,-1,-1,-1,-1,-1,-1,-1,-1,-1,-1,-1,-1,-1,-1,-1,-1,-1,-1,-1,-1],"loss_changes":[7.3769644E3,2.329086E3,1.2239253E3,1.1085449E1,1.8753547E3,2.074827E2,5.7673145E2,5.956543E0,3.2721706E1,2.6159302E2,1.5191348E3,6.4552536E1,4.6614777E1,3.8320813E2,6.309961E1,0E0,0E0,4.6494576E1,2.443756E0,1.1962288E2,7.165967E1,1.8586145E2,1.3181285E3,1.0430586E1,2.5671955E1,2.5872253E1,3.0765608E1,3.7079007E2,4.488783E2,6.2262207E1,2.083052E1,0E0,0E0,0E0,0E0,0E0,0E0,0E0,0E0,0E0,0E0,0E0,0E0,0E0,0E0,0E0,0E0,0E0,0E0,0E0,0E0,0E0,0E0,0E0,0E0,0E0,0E0,0E0,0E0],"parents":[2147483647,0,0,1,1,2,2,3,3,4,4,5,5,6,6,7,7,8,8,9,9,10,10,11,11,12,12,13,13,14,14,17,17,18,18,19,19,20,20,21,21,22,22,23,23,24,24,25,25,26,26,27,27,28,28,29,29,30,30],"right_children":[2,4,6,8,10,12,14,16,18,20,22,24,26,28,30,-1,-1,32,34,36,38,40,42,44,46,48,50,52,54,56,58,-1,-1,-1,-1,-1,-1,-1,-1,-1,-1,-1,-1,-1,-1,-1,-1,-1,-1,-1,-1,-1,-1,-1,-1,-1,-1,-1,-1],"split_conditions":[2.2496855E-1,8.494574E-2,4.0614158E-2,8.367938E-2,4.6046734E-1,1.4308828E-1,4.1806614E-1,7.651755E-2,5.242801E-1,4.4141915E-1,-5.4577664E-2,3.6628222E-1,4.0311176E-1,3.9379227E-1,3.4221885E-1,-7.5273134E-2,2.1380372E-2,1.6739013E-3,7.74224E-2,3.743735E-2,6.1663523E-2,1.3438588E-1,4.9349165E-1,5.610661E-1,-7.924262E-3,-6.186533E-2,-7.02755E-2,-1.1506389E-2,5.720821E-1,2.2695082E-1,1.061008E-1,8.535998E-2,-6.804969E-2,-7.830946E-2,-8.819101E-3,-6.0539644E-2,7.045376E-2,-7.22607E-2,8.1365794E-2,-7.4890845E-2,6.359644E-2,2.7750615E-2,-2.1204865E-2,-6.614369E-2,5.559027E-2,7.657062E-2,1.0004995E-2,-7.678612E-2,3.1105906E-2,8.1552684E-2,-6.6844E-2,5.996548E-2,4.079235E-3,6.601223E-2,-7.337718E-2,-7.750675E-3,7.271036E-2,6.0638767E-2,-4.7446862E-2],"split_indices":[2,18,6,18,5,19,3,14,1,4,12,3,1,1,20,0,0,26,36,6,14,18,1,1,20,12,16,20,4,2,19,0,0,0,0,0,0,0,0,0,0,0,0,0,0,0,0,0,0,0,0,0,0,0,0,0,0,0,0],"split_type":[0,0,0,0,0,0,0,0,0,0,0,0,0,0,0,0,0,0,0,0,0,0,0,0,0,0,0,0,0,0,0,0,0,0,0,0,0,0,0,0,0,0,0,0,0,0,0,0,0,0,0,0,0,0,0,0,0,0,0],"sum_hessian":[1.5007324E4,9.697003E3,5.3103213E3,1.9742985E3,7.722704E3,3.242133E2,4.986108E3,1.9170096E3,5.7288795E1,1.3903765E3,6.3323276E3,7.795321E1,2.4626009E2,2.60437E3,2.3817378E3,1.915808E3,1.2016889E0,1.7805687E1,3.948311E1,7.451869E1,1.3158578E3,7.2551953E2,5.606808E3,1.8391514E1,5.956169E1,2.3368013E2,1.2579959E1,1.4556564E3,1.1487137E3,2.3619365E3,1.9801321E1,8.4290495E0,9.376637E0,3.789529E1,1.5878161E0,2.5966858E1,4.8551838E1,1.3090044E3,6.853348E0,7.0115106E2,2.4368444E1,3.1940452E3,2.412763E3,1.7195852E1,1.1956611E0,3.4540012E1,2.502168E1,2.2848927E2,5.190848E0,7.667021E0,4.9129376E0,4.1417712E2,1.0414792E3,1.0885256E3,6.01881E1,2.4107697E1,2.3378289E3,5.304003E0,1.4497318E1],"tree_param":{"num_deleted":"0","num_feature":"40","num_nodes":"59","size_leaf_vector":"1"}},{"base_weights":[-3.1967717E-3,-5.008198E-1,9.1600335E-1,-1.5177359E-1,-1.2155046E0,3.158783E-1,1.2173011E0,-1.2479832E0,3.899967E-2,-1.3716327E0,-6.675241E-1,-1.3402427E0,5.914131E-1,1.2337793E0,-1.3804411E0,-1.4232777E0,2.8410068E-1,-1.1551666E0,2.9662037E-1,-1.3843577E0,1.540648E-1,-2.360147E-1,-1.2909415E0,-1.4884006E0,1.0399995E0,2.2751927E-1,1.3798168E0,1.0149665E0,1.3847597E0,2.1643045E-3,-1.4834677E0,4.5854595E-2,-7.314756E-2,-5.9626132E-2,5.3195566E-2,-7.148306E-2,-3.3354484E-2,-5.8859047E-2,2.2061814E-2,-7.296092E-2,-5.956776E-2,-6.2512666E-2,8.353232E-2,-5.271247E-2,3.8587958E-2,6.237745E-2,-7.1331084E-2,-7.5760335E-2,4.677627E-2,-6.1897703E-2,7.128018E-2,2.3097362E-2,-7.148233E-2,7.0228234E-2,-8.550783E-2,5.9228387E-2,-5.924426E-3,2.7666721E-2,7.117785E-2,-6.561897E-3,-7.789106E-2],"categories":[],"categories_nodes":[],"categories_segments":[],"categories_sizes":[],"default_left":[0,0,0,0,0,0,0,0,0,0,0,0,0,0,0,0,0,0,0,0,0,0,0,0,0,0,0,0,0,0,0,0,0,0,0,0,0,0,0,0,0,0,0,0,0,0,0,0,0,0,0,0,0,0,0,0,0,0,0,0,0],"id":9,"left_children":[1,3,5,7,9,11,13,15,17,19,21,23,25,27,29,31,33,35,37,39,41,43,45,47,49,51,53,55,57,-1,59,-1,-1,-1,-1,-1,-1,-1,-1,-1,-1,-1,-1,-1,-1,-1,-1,-1,-1,-1,-1,-1,-1,-1,-1,-1,-1,-1,-1,-1,-1],"loss_changes":[6.785417E3,2.4006252E3,9.4169727E2,1.3525286E3,2.6925488E2,7.960789E2,1.5016943E2,2.5787598E2,1.695315E3,4.790869E1,1.8858524E2,8.93251E1,4.2857245E2,1.1247119E2,3.3401947E0,8.1232544E1,1.15566696E2,1.3005737E2,9.6659296E2,3.3464355E1,4.7282505E1,3.439889E2,1.0062625E2,1.6669495E1,1.5093456E1,3.9848035E2,3.8488037E1,2.7140234E2,6.491675E1,0E0,1.8923874E0,0E0,0E0,0E0,0E0,0E0,0E0,0E0,0E0,0E0,0E0,0E0,0E0,0E0,0E0,0E0,0E0,0E0,0E0,0E0,0E0,0E0,0E0,0E0,0E0,0E0,0E0,0E0,0E0,0E0,0E0],"parents":[2147483647,0,0,1,1,2,2,3,3,4,4,5,5,6,6,7,7,8,8,9,9,10,10,11,11,12,12,13,13,14,14,15,15,16,16,17,17,18,18,19,19,20,20,21,21,22,22,23,23,24,24,25,25,26,26,27,27,28,28,30,30],"right_children":[2,4,6,8,10,12,14,16,18,20,22,24,26,28,30,32,34,36,38,40,42,44,46,48,50,52,54,56,58,-1,60,-1,-1,-1,-1,-1,-1,-1,-1,-1,-1,-1,-1,-1,-1,-1,-1,-1,-1,-1,-1,-1,-1,-1,-1,-1,-1,-1,-1,-1,-1],"split_conditions":[1.4056358E-1,5.155331E-1,2.334925E-1,-7.3633656E-2,1.2404521E-1,3.3882514E-1,-3.0525059E-2,-7.0979774E-2,1.0722578E-2,2.6209003E-1,4.702734E-1,-7.2623655E-2,3.923181E-1,2.4334574E-1,7.502323E-2,4.4885567E-1,9.761888E-2,4.796638E-1,1.172325E-2,9.1611385E-2,-6.600191E-2,1.560068E-2,7.8891195E-2,6.670623E-2,7.772148E-3,2.2017956E-2,-5.263415E-2,1.19065255E-1,2.9478267E-1,2.1643045E-3,4.0913284E-2,4.5854595E-2,-7.314756E-2,-5.9626132E-2,5.3195566E-2,-7.148306E-2,-3.3354484E-2,-5.8859047E-2,2.2061814E-2,-7.296092E-2,-5.956776E-2,-6.2512666E-2,8.353232E-2,-5.271247E-2,3.8587958E-2,6.237745E-2,-7.1331084E-2,-7.5760335E-2,4.677627E-2,-6.1897703E-2,7.128018E-2,2.3097362E-2,-7.148233E-2,7.0228234E-2,-8.550783E-2,5.9228387E-2,-5.924426E-3,2.7666721E-2,7.117785E-2,-6.561897E-3,-7.789106E-2],"split_indices":[18,29,2,13,18,1,35,15,7,2,4,13,1,2,28,4,36,4,34,18,13,34,37,20,7,7,35,36,30,0,6,0,0,0,0,0,0,0,0,0,0,0,0,0,0,0,0,0,0,0,0,0,0,0,0,0,0,0,0,0,0],"split_type":[0,0,0,0,0,0,0,0,0,0,0,0,0,0,0,0,0,0,0,0,0,0,0,0,0,0,0,0,0,0,0,0,0,0,0,0,0,0,0,0,0,0,0,0,0,0,0,0,0,0,0,0,0,0,0,0,0,0,0,0,0],"sum_hessian":[1.4832262E4,9.623103E3,5.2091587E3,6.4662515E3,3.1568516E3,1.7418297E3,3.4673289E3,9.5769E2,5.5085615E3,2.4556858E3,7.011656E2,2.4790646E2,1.4939233E3,3.4459949E3,2.1333904E1,8.594288E2,9.8261215E1,9.768801E2,4.531681E3,2.4354658E3,2.0220097E1,4.1517407E2,2.8599155E2,2.3373251E2,1.4173954E1,1.02302625E3,4.7089706E2,1.4100941E3,2.0359009E3,1.4787598E0,1.9855145E1,1.3957303E1,8.454715E2,3.3775608E1,6.44856E1,6.2400854E2,3.528716E2,4.0429663E2,4.127385E3,1.7500898E3,6.853759E2,1.0589803E1,9.630293E0,2.2910905E2,1.8606502E2,1.4094661E1,2.7189688E2,2.3154674E2,2.185773E0,1.7319641E0,1.244199E1,8.96873E2,1.2615326E2,4.676967E2,3.200376E0,1.226522E3,1.835721E2,9.144744E1,1.9444534E3,1.1789633E0,1.8676182E1],"tree_param":{"num_deleted":"0","num_feature":"40","num_nodes":"61","size_leaf_vector":"1"}},{"base_weights":[-6.36366E-4,-4.6975803E-1,8.933435E-1,-1.21172465E-1,-1.2074177E0,-8.7728155E-1,1.0089566E0,-1.2536888E0,1.6039386E-1,-6.988058E-1,-1.347467E0,4.4029278E-1,-1.320276E0,6.9354266E-1,1.247415E0,-2.2973266E-1,-1.4264646E0,-1.0858887E0,4.348359E-1,-1.3288432E0,-5.176825E-2,-5.175907E-1,-1.3935728E0,8.8333654E-1,-1.1042014E0,-1.4106419E0,3.747759E-1,2.6512903E-1,1.1849197E0,-1.3984255E0,1.3002264E0,-5.330193E-2,4.0200025E-2,-7.217118E-2,6.0852896E-2,-7.07833E-2,-3.276963E-2,2.8827578E-2,-6.564442E-2,-7.0050016E-2,7.36712E-2,3.3173088E-2,-6.289966E-2,-6.6967696E-2,-4.4495114E-3,-5.5256534E-2,-7.120324E-2,4.2866496E-3,6.6854276E-2,-6.734115E-2,5.9801143E-2,-7.3393054E-2,6.313344E-2,7.3619284E-2,-6.354064E-2,2.6061786E-2,-5.540491E-2,2.5179178E-2,6.807514E-2,-7.6993816E-2,5.3185135E-2,6.717213E-2,1.9708339E-3],"categories":[],"categories_nodes":[],"categories_segments":[],"categories_sizes":[],"default_left":[0,0,0,0,0,0,0,0,0,0,0,0,0,0,0,0,0,0,0,0,0,0,0,0,0,0,0,0,0,0,0,0,0,0,0,0,0,0,0,0,0,0,0,0,0,0,0,0,0,0,0,0,0,0,0,0,0,0,0,0,0,0,0],"id":10,"left_children":[1,3,5,7,9,11,13,15,17,19,21,23,25,27,29,31,33,35,37,39,41,43,45,47,49,51,53,55,57,59,61,-1,-1,-1,-1,-1,-1,-1,-1,-1,-1,-1,-1,-1,-1,-1,-1,-1,-1,-1,-1,-1,-1,-1,-1,-1,-1,-1,-1,-1,-1,-1,-1],"loss_changes":[6.1183027E3,2.4601233E3,1.028685E3,2.072464E3,2.1775977E2,1.8051514E2,3.5365576E2,2.2861548E2,1.7809254E3,2.7101306E2,9.1350586E1,5.456691E1,3.590561E1,4.2735815E2,3.7671143E2,1.6340639E2,5.1388428E1,1.3248132E2,1.0575569E3,7.018085E1,2.8475977E2,4.504961E1,1.8471191E1,2.2112492E1,1.1601892E1,3.542572E1,2.4411987E1,3.8273047E2,1.1312549E2,2.0091568E1,1.4330322E2,0E0,0E0,0E0,0E0,0E0,0E0,0E0,0E0,0E0,0E0,0E0,0E0,0E0,0E0,0E0,0E0,0E0,0E0,0E0,0E0,0E0,0E0,0E0,0E0,0E0,0E0,0E0,0E0,0E0,0E0,0E0,0E0],"parents":[2147483647,0,0,1,1,2,2,3,3,4,4,5,5,6,6,7,7,8,8,9,9,10,10,11,11,12,12,13,13,14,14,15,15,16,16,17,17,18,18,19,19,20,20,21,21,22,22,23,23,24,24,25,25,26,26,27,27,28,28,29,29,30,30],"right_children":[2,4,6,8,10,12,14,16,18,20,22,24,26,28,30,32,34,36,38,40,42,44,46,48,50,52,54,56,58,60,62,-1,-1,-1,-1,-1,-1,-1,-1,-1,-1,-1,-1,-1,-1,-1,-1,-1,-1,-1,-1,-1,-1,-1,-1,-1,-1,-1,-1,-1,-1,-1,-1],"split_conditions":[2.2594309E-1,5.089346E-1,4.0614158E-2,4.6176597E-1,5.273826E-1,1.4278328E-1,5.085711E-1,5.522978E-1,1.0722578E-2,5.3077626E-1,4.997244E-1,6.691663E-1,4.038756E-1,2.3751158E-1,1.2343088E-1,3.840971E-2,6.1052993E-2,1.1399466E-1,-5.693239E-2,2.2303751E-1,5.733742E-1,2.7501076E-2,5.1974005E-1,5.342669E-1,5.610661E-1,-6.155497E-2,4.1778734E-1,2.2017956E-2,3.7010926E-1,5.3369492E-2,-5.8136344E-2,-5.330193E-2,4.0200025E-2,-7.217118E-2,6.0852896E-2,-7.07833E-2,-3.276963E-2,2.8827578E-2,-6.564442E-2,-7.0050016E-2,7.36712E-2,3.3173088E-2,-6.289966E-2,-6.6967696E-2,-4.4495114E-3,-5.5256534E-2,-7.120324E-2,4.2866496E-3,6.6854276E-2,-6.734115E-2,5.9801143E-2,-7.3393054E-2,6.313344E-2,7.3619284E-2,-6.354064E-2,2.6061786E-2,-5.540491E-2,2.5179178E-2,6.807514E-2,-7.6993816E-2,5.3185135E-2,6.717213E-2,1.9708339E-3],"split_indices":[2,29,6,5,5,19,5,8,7,8,31,8,1,2,18,10,14,19,35,2,31,6,31,5,1,12,0,7,0,6,35,0,0,0,0,0,0,0,0,0,0,0,0,0,0,0,0,0,0,0,0,0,0,0,0,0,0,0,0,0,0,0,0],"split_type":[0,0,0,0,0,0,0,0,0,0,0,0,0,0,0,0,0,0,0,0,0,0,0,0,0,0,0,0,0,0,0,0,0,0,0,0,0,0,0,0,0,0,0,0,0,0,0,0,0,0,0,0,0,0,0,0,0,0,0,0,0,0,0],"sum_hessian":[1.4586738E4,9.566914E3,5.0198247E3,6.4975986E3,3.0693152E3,3.072758E2,4.712549E3,1.2930876E3,5.2045107E3,6.639738E2,2.4053413E3,7.73183E1,2.2995749E2,2.0305748E3,2.6819739E3,1.8702321E2,1.1060645E3,9.3871375E2,4.2657974E3,3.3587234E2,3.2810147E2,1.2724462E2,2.2780967E3,6.0415863E1,1.6902435E1,2.1847787E2,1.1479618E1,1.0856105E3,9.4496436E2,5.1986458E1,2.6299875E3,1.03366714E2,8.36565E1,1.099465E3,6.5994463E0,5.302402E2,4.084736E2,3.9464648E3,3.193322E2,3.279284E2,7.9439383E0,2.0625357E2,1.21847916E2,4.28886E1,8.435602E1,2.2135983E2,2.0567368E3,2.233832E1,3.807754E1,1.5664651E1,1.2377841E0,2.1434106E2,4.1368017E0,6.9495273E0,4.530091E0,9.1549176E2,1.7011865E2,1.9529207E2,7.496723E2,4.951629E1,2.470168E0,2.5427646E3,8.722297E1],"tree_param":{"num_deleted":"0","num_feature":"40","num_nodes":"63","size_leaf_vector":"1"}},{"base_weights":[-2.9583557E-3,-4.6227375E-1,8.6004996E-1,-1.3956486E0,-2.3252118E-1,4.8377052E-1,1.3000504E0,-1.4070766E0,-1.0071383E0,-1.2367338E0,-6.118058E-2,2.559224E-1,1.3609724E0,1.3477883E0,-7.869086E-2,-1.4087796E0,-3.2973337E-1,-1.3666542E-1,-1.4424868E0,3.689956E-1,-1.3581635E0,-1.2234023E0,1.2467524E-1,-7.99933E-3,8.655458E-1,5.861429E-1,1.4268738E0,1.3559657E0,-9.470131E-2,-9.876755E-1,9.017584E-1,-7.046275E-2,-1.706093E-2,-5.4296922E-2,4.046436E-2,7.973693E-2,-6.438553E-2,-7.481495E-2,9.427514E-3,-5.2033234E-2,6.46519E-2,2.1860747E-2,-6.940896E-2,-6.568911E-2,5.597789E-2,-6.84016E-2,1.31194815E-2,1.1680277E-2,-6.292825E-2,3.159972E-2,6.800597E-2,6.426383E-2,-6.757003E-2,5.783949E-2,7.252022E-2,4.2772744E-2,6.951211E-2,-7.262061E-2,7.051307E-2,7.32938E-2,-7.0048586E-2],"categories":[],"categories_nodes":[],"categories_segments":[],"categories_sizes":[],"default_left":[0,0,0,0,0,0,0,0,0,0,0,0,0,0,0,0,0,0,0,0,0,0,0,0,0,0,0,0,0,0,0,0,0,0,0,0,0,0,0,0,0,0,0,0,0,0,0,0,0,0,0,0,0,0,0,0,0,0,0,0,0],"id":11,"left_children":[1,3,5,7,9,11,13,15,17,19,21,23,25,27,29,31,33,35,37,39,41,43,45,47,49,51,53,55,-1,57,59,-1,-1,-1,-1,-1,-1,-1,-1,-1,-1,-1,-1,-1,-1,-1,-1,-1,-1,-1,-1,-1,-1,-1,-1,-1,-1,-1,-1,-1,-1],"loss_changes":[5.6840005E3,2.0065565E3,8.240122E2,6.7893066E0,1.2923016E3,5.365823E2,1.5118652E2,2.8251953E0,2.1151363E1,2.139519E2,1.3863436E3,3.4331046E2,2.7435669E1,6.138379E1,7.019321E1,4.2773438E-1,4.440772E0,4.1684998E1,3.5689774E0,1.0262337E2,5.5464478E1,1.8884106E2,1.1378744E3,4.5050784E2,7.360513E1,6.2826065E1,1.560669E0,3.6787598E1,0E0,4.754835E1,5.1329193E1,0E0,0E0,0E0,0E0,0E0,0E0,0E0,0E0,0E0,0E0,0E0,0E0,0E0,0E0,0E0,0E0,0E0,0E0,0E0,0E0,0E0,0E0,0E0,0E0,0E0,0E0,0E0,0E0,0E0,0E0],"parents":[2147483647,0,0,1,1,2,2,3,3,4,4,5,5,6,6,7,7,8,8,9,9,10,10,11,11,12,12,13,13,14,14,15,15,16,16,17,17,18,18,19,19,20,20,21,21,22,22,23,23,24,24,25,25,26,26,27,27,29,29,30,30],"right_children":[2,4,6,8,10,12,14,16,18,20,22,24,26,28,30,32,34,36,38,40,42,44,46,48,50,52,54,56,-1,58,60,-1,-1,-1,-1,-1,-1,-1,-1,-1,-1,-1,-1,-1,-1,-1,-1,-1,-1,-1,-1,-1,-1,-1,-1,-1,-1,-1,-1,-1,-1],"split_conditions":[1.4056358E-1,8.494574E-2,5.1667786E-1,8.367938E-2,4.573776E-1,3.471807E-3,-5.8136344E-2,8.118199E-2,6.116463E-1,4.0360668E-1,-5.6107223E-2,6.242785E-2,4.37937E-1,5.05782E-1,3.0043048E-1,4.1041076E-2,2.1514416E-2,1.3486359E-3,6.6744365E-2,3.7571132E-2,3.635329E-2,4.0614158E-2,1.0487783E-1,9.637442E-2,1.0822186E-1,4.7808322E-1,1.2634206E-1,2.9478267E-1,-9.470131E-2,4.099006E-1,4.7319084E-1,-7.046275E-2,-1.706093E-2,-5.4296922E-2,4.046436E-2,7.973693E-2,-6.438553E-2,-7.481495E-2,9.427514E-3,-5.2033234E-2,6.46519E-2,2.1860747E-2,-6.940896E-2,-6.568911E-2,5.597789E-2,-6.84016E-2,1.31194815E-2,1.1680277E-2,-6.292825E-2,3.159972E-2,6.800597E-2,6.426383E-2,-6.757003E-2,5.783949E-2,7.252022E-2,4.2772744E-2,6.951211E-2,-7.262061E-2,7.051307E-2,7.32938E-2,-7.0048586E-2],"split_indices":[18,18,5,18,5,17,35,14,5,0,12,14,5,0,30,10,7,26,28,10,10,6,19,37,38,30,19,30,0,0,0,0,0,0,0,0,0,0,0,0,0,0,0,0,0,0,0,0,0,0,0,0,0,0,0,0,0,0,0,0,0],"split_type":[0,0,0,0,0,0,0,0,0,0,0,0,0,0,0,0,0,0,0,0,0,0,0,0,0,0,0,0,0,0,0,0,0,0,0,0,0,0,0,0,0,0,0,0,0,0,0,0,0,0,0,0,0,0,0,0,0,0,0,0,0],"sum_hessian":[1.4337305E4,9.357478E3,4.9798276E3,1.84738E3,7.510097E3,2.685415E3,2.2944126E3,1.7920454E3,5.5334576E1,1.0937141E3,6.416383E3,2.13274E3,5.5267505E2,2.2176504E3,7.676203E1,1.78891E3,3.1353757E0,1.8886074E1,3.64485E1,7.67513E1,1.01696277E3,8.838398E2,5.5325435E3,1.4890698E3,6.4367E2,4.4097492E1,5.0857758E2,2.212651E3,4.999689E0,3.9828884E1,3.6933144E1,1.787794E3,1.1160119E0,1.9123526E0,1.2230232E0,7.387825E0,1.1498248E1,3.5364346E1,1.0841575E0,3.0340126E1,4.6411175E1,1.6499279E1,1.0004635E3,8.5143494E2,3.240486E1,4.6655457E2,5.065989E3,1.2486486E3,2.404213E2,4.387554E2,2.0491461E2,3.265211E1,1.144538E1,4.477774E1,4.6379984E2,1.4347997E2,2.069171E3,3.369322E1,6.1356688E0,2.9957615E1,6.9755287E0],"tree_param":{"num_deleted":"0","num_feature":"40","num_nodes":"61","size_leaf_vector":"1"}},{"base_weights":[1.025122E-3,8.2565624E-1,-4.1788173E-1,3.1834292E-1,1.1399089E0,-1.2693422E0,-1.6140467E-1,5.43679E-1,-1.3077704E0,8.614278E-1,1.2938823E0,-1.3169435E0,-6.841328E-1,5.275528E-1,-5.1781267E-1,1.5312485E-1,1.0462854E0,-1.3850908E0,8.491465E-1,9.9951935E-1,-8.060537E-1,1.3122083E0,-2.7986526E-1,1.3183066E0,-1.324318E0,-9.4292605E-1,1.9306477E0,8.001597E-2,1.4377791E0,-1.5191755E-2,-1.1677606E0,-4.164639E-3,6.4590484E-2,6.670924E-2,3.4809303E-2,5.7554513E-2,-7.203461E-2,-5.24054E-2,6.645693E-2,4.2286973E-2,6.716884E-2,5.2090812E-2,-7.318743E-2,-2.7794421E-3,6.634005E-2,-7.390253E-2,6.3740805E-2,7.426796E-2,1.632897E-2,5.1895738E-2,-6.6604644E-2,-6.4251974E-2,2.1024982E-2,1.9890238E-2,1.0154952E-1,-8.57979E-2,1.8505981E-2,-7.83593E-2,8.1054755E-2,-5.156216E-2,1.681247E-2,-6.1989345E-2,1.866728E-2],"categories":[],"categories_nodes":[],"categories_segments":[],"categories_sizes":[],"default_left":[0,0,0,0,0,0,0,0,0,0,0,0,0,0,0,0,0,0,0,0,0,0,0,0,0,0,0,0,0,0,0,0,0,0,0,0,0,0,0,0,0,0,0,0,0,0,0,0,0,0,0,0,0,0,0,0,0,0,0,0,0,0,0],"id":12,"left_children":[1,3,5,7,9,11,13,15,17,19,21,23,25,27,29,31,33,35,37,39,41,43,45,47,49,51,53,55,57,59,61,-1,-1,-1,-1,-1,-1,-1,-1,-1,-1,-1,-1,-1,-1,-1,-1,-1,-1,-1,-1,-1,-1,-1,-1,-1,-1,-1,-1,-1,-1,-1,-1],"loss_changes":[4.9048716E3,7.6217944E2,2.0559895E3,6.7160834E2,1.25512695E2,5.9812744E1,1.7773616E3,3.1564075E2,3.8388977E1,2.436081E2,5.515576E1,4.0894775E1,1.14168915E2,1.0052268E3,1.5583086E3,2.4414014E2,6.9960754E1,3.2088287E1,8.9898205E0,5.0380615E1,1.0020831E2,3.755835E1,4.415356E1,5.2927685E-1,3.8285645E1,7.132199E1,1.542347E0,8.632005E2,4.5061353E2,9.612571E2,2.3136841E2,0E0,0E0,0E0,0E0,0E0,0E0,0E0,0E0,0E0,0E0,0E0,0E0,0E0,0E0,0E0,0E0,0E0,0E0,0E0,0E0,0E0,0E0,0E0,0E0,0E0,0E0,0E0,0E0,0E0,0E0,0E0,0E0],"parents":[2147483647,0,0,1,1,2,2,3,3,4,4,5,5,6,6,7,7,8,8,9,9,10,10,11,11,12,12,13,13,14,14,15,15,16,16,17,17,18,18,19,19,20,20,21,21,22,22,23,23,24,24,25,25,26,26,27,27,28,28,29,29,30,30],"right_children":[2,4,6,8,10,12,14,16,18,20,22,24,26,28,30,32,34,36,38,40,42,44,46,48,50,52,54,56,58,60,62,-1,-1,-1,-1,-1,-1,-1,-1,-1,-1,-1,-1,-1,-1,-1,-1,-1,-1,-1,-1,-1,-1,-1,-1,-1,-1,-1,-1,-1,-1,-1,-1],"split_conditions":[-9.6542045E-2,4.0412143E-1,1.172325E-2,1.5975904E-1,4.192199E-1,-4.8146665E-2,-1.1901393E-1,4.4097963E-1,4.621424E-1,1.08624235E-1,5.783426E-1,-1.1239022E-2,1.2696916E-1,5.554033E-1,4.6844625E-1,3.471807E-3,1.879733E-2,-5.876601E-2,4.070741E-2,9.37819E-4,1.1726257E-3,-8.2087755E-2,1.02082804E-1,1.8678129E-2,8.803272E-2,5.028191E-1,3.1123385E-1,2.859313E-1,1.0821076E-1,1.194787E-2,4.4205964E-2,-4.164639E-3,6.4590484E-2,6.670924E-2,3.4809303E-2,5.7554513E-2,-7.203461E-2,-5.24054E-2,6.645693E-2,4.2286973E-2,6.716884E-2,5.2090812E-2,-7.318743E-2,-2.7794421E-3,6.634005E-2,-7.390253E-2,6.3740805E-2,7.426796E-2,1.632897E-2,5.1895738E-2,-6.6604644E-2,-6.4251974E-2,2.1024982E-2,1.9890238E-2,1.0154952E-1,-8.57979E-2,1.8505981E-2,-7.83593E-2,8.1054755E-2,-5.156216E-2,1.681247E-2,-6.1989345E-2,1.866728E-2],"split_indices":[16,3,34,19,3,12,20,4,9,38,4,17,19,8,30,17,20,20,10,17,20,12,37,11,19,4,3,3,19,11,10,0,0,0,0,0,0,0,0,0,0,0,0,0,0,0,0,0,0,0,0,0,0,0,0,0,0,0,0,0,0,0,0],"split_type":[0,0,0,0,0,0,0,0,0,0,0,0,0,0,0,0,0,0,0,0,0,0,0,0,0,0,0,0,0,0,0,0,0,0,0,0,0,0,0,0,0,0,0,0,0,0,0,0,0,0,0,0,0,0,0,0,0,0,0,0,0,0,0],"sum_hessian":[1.4196762E4,4.782093E3,9.414669E3,1.829942E3,2.9521511E3,2.178493E3,7.2361763E3,1.6078082E3,2.221338E2,1.0534473E3,1.8987037E3,2.0134658E3,1.6502711E2,2.466946E3,4.7692305E3,9.054928E2,7.023154E2,2.1479185E2,7.341951E0,9.732488E2,8.0198494E1,1.8770125E3,2.1691326E1,5.122782E0,2.008343E3,1.5074663E2,1.4280492E1,1.654537E3,8.12409E2,2.6900054E3,2.079225E3,7.5058136E2,1.5491142E2,3.838504E2,3.1846503E2,4.185242E0,2.1060661E2,1.2434393E0,6.0985117E0,6.7488586E2,2.983629E2,2.089829E1,5.93002E1,1.9784311E1,1.8572281E3,1.2278012E1,9.413314E0,3.958276E0,1.1645061E0,6.153666E0,2.0021893E3,1.2055438E2,3.0192242E1,1.1824063E0,1.3098085E1,2.2940724E2,1.4251296E3,4.6276882E1,7.6613214E2,6.908255E2,1.9991799E3,1.9865745E3,9.265055E1],"tree_param":{"num_deleted":"0","num_feature":"40","num_nodes":"63","size_leaf_vector":"1"}},{"base_weights":[1.7705183E-3,-4.2946717E-1,8.213071E-1,-1.3396885E0,-2.1886207E-1,-7.9539365E-1,9.2427915E-1,-1.3418344E0,4.9269043E-2,-2.4388513E-2,-1.0813313E0,-1.1495377E0,4.293739E-1,6.1253464E-1,1.2860107E0,-1.3545587E0,-9.2883193E-1,-1.1469127E0,1.3060573E-1,-5.274665E-1,-1.3644633E0,9.599072E-1,-1.2721584E0,-9.750716E-1,1.2560918E0,1.1549748E0,4.0522105E-1,1.2938963E0,-6.403248E-2,-6.778699E-2,-2.1105869E-2,1.5698364E-3,-6.987403E-2,-6.299774E-2,1.2227385E-2,-4.7710575E-2,1.362824E-2,-4.7418218E-2,2.8597353E-2,-6.885218E-2,6.867648E-2,6.768647E-2,-6.319917E-2,-6.453492E-2,4.1844677E-2,-5.8967184E-2,6.769768E-2,-6.567982E-2,7.164299E-2,2.7314767E-2,6.4074814E-2,-2.8451115E-3,3.6507946E-2,5.416729E-3,6.513621E-2],"categories":[],"categories_nodes":[],"categories_segments":[],"categories_sizes":[],"default_left":[0,0,0,0,0,0,0,0,0,0,0,0,0,0,0,0,0,0,0,0,0,0,0,0,0,0,0,0,0,0,0,0,0,0,0,0,0,0,0,0,0,0,0,0,0,0,0,0,0,0,0,0,0,0,0],"id":13,"left_children":[1,3,5,7,9,11,13,15,-1,17,19,21,23,25,27,29,31,33,35,37,39,41,43,45,47,49,51,53,-1,-1,-1,-1,-1,-1,-1,-1,-1,-1,-1,-1,-1,-1,-1,-1,-1,-1,-1,-1,-1,-1,-1,-1,-1,-1,-1],"loss_changes":[4.9282783E3,1.751229E3,8.0111694E2,9.887207E0,1.2447246E3,1.25595856E2,5.089673E2,7.75708E0,0E0,1.0539424E3,2.1340796E2,5.9162323E1,7.718326E1,2.7278278E2,4.3988525E1,1.2578125E0,2.454908E1,1.1590961E2,8.199798E2,2.1503548E2,3.299231E1,1.2987948E1,9.374725E0,1.3397108E1,2.0786293E1,5.1000305E1,2.6425418E2,2.1686768E1,0E0,0E0,0E0,0E0,0E0,0E0,0E0,0E0,0E0,0E0,0E0,0E0,0E0,0E0,0E0,0E0,0E0,0E0,0E0,0E0,0E0,0E0,0E0,0E0,0E0,0E0,0E0],"parents":[2147483647,0,0,1,1,2,2,3,3,4,4,5,5,6,6,7,7,9,9,10,10,11,11,12,12,13,13,14,14,15,15,16,16,17,17,18,18,19,19,20,20,21,21,22,22,23,23,24,24,25,25,26,26,27,27],"right_children":[2,4,6,8,10,12,14,16,-1,18,20,22,24,26,28,30,32,34,36,38,40,42,44,46,48,50,52,54,-1,-1,-1,-1,-1,-1,-1,-1,-1,-1,-1,-1,-1,-1,-1,-1,-1,-1,-1,-1,-1,-1,-1,-1,-1,-1,-1],"split_conditions":[2.2542477E-1,8.494574E-2,4.0614158E-2,7.777524E-2,9.8429024E-2,5.2426445E-1,4.186567E-1,8.367938E-2,4.9269043E-2,1.2168811E-2,4.213964E-1,4.2357802E-2,4.5978367E-2,-1.0263371E-2,7.379402E-1,3.856343E-2,6.1176264E-1,5.64032E-1,1.0386169E-2,4.851811E-1,4.0412143E-1,4.2478442E-2,4.715578E-1,7.33767E-1,5.553424E-3,2.2883044E-1,5.003286E-1,2.2695082E-1,-6.403248E-2,-6.778699E-2,-2.1105869E-2,1.5698364E-3,-6.987403E-2,-6.299774E-2,1.2227385E-2,-4.7710575E-2,1.362824E-2,-4.7418218E-2,2.8597353E-2,-6.885218E-2,6.867648E-2,6.768647E-2,-6.319917E-2,-6.453492E-2,4.1844677E-2,-5.8967184E-2,6.769768E-2,-6.567982E-2,7.164299E-2,2.7314767E-2,6.4074814E-2,-2.8451115E-3,3.6507946E-2,5.416729E-3,6.513621E-2],"split_indices":[2,18,6,14,38,9,3,18,0,34,0,10,10,20,20,10,9,8,7,9,3,14,3,9,7,2,9,2,0,0,0,0,0,0,0,0,0,0,0,0,0,0,0,0,0,0,0,0,0,0,0,0,0,0,0],"split_type":[0,0,0,0,0,0,0,0,0,0,0,0,0,0,0,0,0,0,0,0,0,0,0,0,0,0,0,0,0,0,0,0,0,0,0,0,0,0,0,0,0,0,0,0,0,0,0,0,0,0,0,0,0,0,0],"sum_hessian":[1.3942735E4,9.135918E3,4.806817E3,1.7156464E3,7.420272E3,2.8742413E2,4.5193926E3,1.7144869E3,1.1594965E0,6.0558086E3,1.3644635E3,2.2300362E2,6.4420525E1,2.428863E3,2.0905295E3,1.6610321E3,5.345481E1,7.339413E2,5.321867E3,4.6252747E2,9.0193604E2,1.1875804E1,2.111278E2,2.380339E1,4.0617138E1,6.703382E2,1.7585248E3,2.0846208E3,5.908707E0,1.6584773E3,2.5548139E0,1.7838326E1,3.561649E1,6.7888336E2,5.5057915E1,6.151693E2,4.7066978E3,3.345762E2,1.2795128E2,8.983057E2,3.6303427E0,1.0421559E1,1.4542445E0,2.0967267E2,1.4551417E0,2.2337835E1,1.4655547E0,2.2002807E0,3.8416855E1,1.1627422E2,5.5406396E2,7.263468E2,1.032178E3,1.5505596E1,2.0691152E3],"tree_param":{"num_deleted":"0","num_feature":"40","num_nodes":"55","size_leaf_vector":"1"}},{"base_weights":[-1.8535814E-3,-3.8921195E-1,8.3592176E-1,-1.3155166E0,-1.915753E-1,-6.1588216E-1,9.445356E-1,-1.3296987E0,-8.5371083E-1,-1.2023574E0,3.3774078E-4,-1.0645114E0,-5.0961602E-2,6.712884E-1,1.2353364E0,-1.3312724E0,2.273969E-2,-1.366393E0,-6.475631E-3,4.6151763E-1,-1.3029426E0,-1.1218152E0,1.5652485E-1,4.8982984E-1,-1.3237839E0,8.699948E-1,-1.3210254E0,4.0275565E-1,1.1169494E0,-1.3201739E-1,1.2748144E0,-6.662355E-2,-1.4788491E-2,-6.9777586E-2,-1.2229735E-2,-5.5598706E-2,6.0608663E-2,-5.5675443E-2,7.034652E-2,-6.643929E-2,4.1863512E-2,-6.0895216E-2,1.1977919E-2,-6.566159E-2,1.2785236E-2,5.1991235E-2,-4.3116525E-2,-6.7667596E-2,-1.4483973E-2,6.165125E-2,-7.948238E-2,-7.0729956E-2,6.638833E-2,2.7065089E-2,-3.9773557E-2,1.0386566E-2,6.3920006E-2,5.7502937E-2,-5.7246614E-2,6.434997E-2,-6.937503E-2],"categories":[],"categories_nodes":[],"categories_segments":[],"categories_sizes":[],"default_left":[0,0,0,0,0,0,0,0,0,0,0,0,0,0,0,0,0,0,0,0,0,0,0,0,0,0,0,0,0,0,0,0,0,0,0,0,0,0,0,0,0,0,0,0,0,0,0,0,0,0,0,0,0,0,0,0,0,0,0,0,0],"id":14,"left_children":[1,3,5,7,9,11,13,15,17,19,21,23,25,27,29,31,-1,33,35,37,39,41,43,45,47,49,51,53,55,57,59,-1,-1,-1,-1,-1,-1,-1,-1,-1,-1,-1,-1,-1,-1,-1,-1,-1,-1,-1,-1,-1,-1,-1,-1,-1,-1,-1,-1,-1,-1],"loss_changes":[4.4880454E3,1.7310864E3,6.9008984E2,9.755127E0,1.5121617E3,7.723667E1,3.2247168E2,5.1308594E0,2.2724121E1,2.087821E2,1.148598E3,6.9129395E1,1.6026991E2,2.5084863E2,1.0650122E2,1.6047363E0,0E0,7.2504807E-1,2.928285E1,1.082548E2,6.6005005E1,1.0503363E2,8.389172E2,1.9505646E1,4.06929E0,7.2911896E1,1.6149498E1,2.182158E2,1.1555005E2,7.427815E1,6.3898926E1,0E0,0E0,0E0,0E0,0E0,0E0,0E0,0E0,0E0,0E0,0E0,0E0,0E0,0E0,0E0,0E0,0E0,0E0,0E0,0E0,0E0,0E0,0E0,0E0,0E0,0E0,0E0,0E0,0E0,0E0],"parents":[2147483647,0,0,1,1,2,2,3,3,4,4,5,5,6,6,7,7,8,8,9,9,10,10,11,11,12,12,13,13,14,14,15,15,17,17,18,18,19,19,20,20,21,21,22,22,23,23,24,24,25,25,26,26,27,27,28,28,29,29,30,30],"right_children":[2,4,6,8,10,12,14,16,18,20,22,24,26,28,30,32,-1,34,36,38,40,42,44,46,48,50,52,54,56,58,60,-1,-1,-1,-1,-1,-1,-1,-1,-1,-1,-1,-1,-1,-1,-1,-1,-1,-1,-1,-1,-1,-1,-1,-1,-1,-1,-1,-1,-1,-1],"split_conditions":[2.2836727E-1,8.494574E-2,1.3673866E-1,8.367938E-2,4.573776E-1,-8.170606E-2,4.192199E-1,7.71375E-2,2.4994731E-2,4.021799E-1,1.2168811E-2,1.5126768E-1,-1.5715713E-2,5.174476E-1,3.45155E-2,3.856343E-2,2.273969E-2,2.1212506E-1,4.7319084E-1,3.8175404E-2,-8.1496954E-2,5.0450486E-1,1.0135949E-1,5.763266E-3,2.0076985E-2,6.102604E-1,6.3638425E-1,1.0697591E-1,1.4482057E-2,4.4908673E-1,5.1089215E-1,-6.662355E-2,-1.4788491E-2,-6.9777586E-2,-1.2229735E-2,-5.5598706E-2,6.0608663E-2,-5.5675443E-2,7.034652E-2,-6.643929E-2,4.1863512E-2,-6.0895216E-2,1.1977919E-2,-6.566159E-2,1.2785236E-2,5.1991235E-2,-4.3116525E-2,-6.7667596E-2,-1.4483973E-2,6.165125E-2,-7.948238E-2,-7.0729956E-2,6.638833E-2,2.7065089E-2,-3.9773557E-2,1.0386566E-2,6.3920006E-2,5.7502937E-2,-5.7246614E-2,6.434997E-2,-6.937503E-2],"split_indices":[2,18,18,18,5,32,3,14,10,0,34,19,32,5,14,10,0,2,0,10,16,4,19,39,27,0,5,38,11,3,0,0,0,0,0,0,0,0,0,0,0,0,0,0,0,0,0,0,0,0,0,0,0,0,0,0,0,0,0,0,0],"split_type":[0,0,0,0,0,0,0,0,0,0,0,0,0,0,0,0,0,0,0,0,0,0,0,0,0,0,0,0,0,0,0,0,0,0,0,0,0,0,0,0,0,0,0,0,0,0,0,0,0,0,0,0,0,0,0,0,0,0,0,0,0],"sum_hessian":[1.3827824E4,9.456159E3,4.3716655E3,1.6617999E3,7.794359E3,3.0396744E2,4.0676982E3,1.6104635E3,5.133643E1,1.2428992E3,6.55146E3,1.6892891E2,1.3503853E2,2.0988496E3,1.9688485E3,1.6092982E3,1.1652291E0,3.1601091E1,1.9735338E1,7.0648476E1,1.1722506E3,7.996995E2,5.7517603E3,2.4022783E1,1.4490613E2,7.8460075E1,5.6578453E1,1.3108822E3,7.8796747E2,5.51832E1,1.9136653E3,1.6071511E3,2.1471255E0,3.056265E1,1.0384412E0,1.0393971E1,9.341367E0,2.6433435E1,4.4215034E1,1.1586392E3,1.36115265E1,7.470746E2,5.2624935E1,3.6282208E2,5.3889385E3,1.7240965E1,6.7818193E0,1.4057787E2,4.3282547E0,6.880371E1,9.6563635E0,5.5097958E1,1.480497E0,1.1755109E3,1.3537135E2,1.1916573E2,6.688017E2,2.4295843E1,3.0887358E1,1.9054608E3,8.204501E0],"tree_param":{"num_deleted":"0","num_feature":"40","num_nodes":"61","size_leaf_vector":"1"}},{"base_weights":[-7.2293263E-4,-3.745486E-1,8.1142324E-1,-5.600385E-2,-1.0708325E0,-7.497906E-1,9.1037977E-1,-1.1337645E0,1.9012679E-1,-5.3359765E-1,-1.232747E0,4.798494E-1,-1.1989577E0,6.085205E-1,1.2444651E0,-1.8852882E-1,-1.305875E0,-8.922393E-1,4.4818708E-1,-1.1362134E0,5.2731242E-2,-2.0566595E-1,-1.2715924E0,-6.385322E-2,8.6400646E-1,-1.2791865E0,2.8932127E-1,1.2200267E0,3.8857305E-1,1.2576236E0,-6.085092E-1,-7.167519E-2,2.4002014E-2,-4.8797256E-3,-6.6606686E-2,-5.944704E-2,-1.4154996E-2,2.7421877E-2,-6.313468E-2,-6.439834E-2,6.299576E-2,-6.503284E-2,3.0822411E-2,-5.5433996E-2,1.3354803E-2,-5.2812543E-2,-6.554281E-2,-6.2435806E-2,5.107513E-2,-6.592407E-2,5.0424535E-2,-5.6766786E-2,7.228543E-2,6.224655E-2,-5.9156675E-2,-6.71828E-4,4.3191846E-2,6.332551E-2,-2.4747973E-2,6.955562E-2,-8.156383E-2],"categories":[],"categories_nodes":[],"categories_segments":[],"categories_sizes":[],"default_left":[0,0,0,0,0,0,0,0,0,0,0,0,0,0,0,0,0,0,0,0,0,0,0,0,0,0,0,0,0,0,0,0,0,0,0,0,0,0,0,0,0,0,0,0,0,0,0,0,0,0,0,0,0,0,0,0,0,0,0,0,0],"id":15,"left_children":[1,3,5,7,9,11,13,15,17,19,21,23,25,27,29,31,33,35,37,39,41,43,45,-1,47,49,51,53,55,57,59,-1,-1,-1,-1,-1,-1,-1,-1,-1,-1,-1,-1,-1,-1,-1,-1,-1,-1,-1,-1,-1,-1,-1,-1,-1,-1,-1,-1,-1,-1],"loss_changes":[4.128223E3,2.0652078E3,6.628401E2,1.6952281E3,2.535791E2,1.4197989E2,4.0575635E2,1.9303894E2,1.4535879E3,2.3984192E2,8.93125E1,4.781753E1,2.2795013E1,2.8460944E2,4.73938E1,1.5398804E2,3.1753784E1,1.8075E2,7.213558E2,1.23331085E2,2.63951E2,3.5734356E1,1.6904053E1,0E0,2.0372261E1,1.73656E1,1.8811018E1,3.5002502E1,2.9813416E2,3.0206787E1,3.122581E1,0E0,0E0,0E0,0E0,0E0,0E0,0E0,0E0,0E0,0E0,0E0,0E0,0E0,0E0,0E0,0E0,0E0,0E0,0E0,0E0,0E0,0E0,0E0,0E0,0E0,0E0,0E0,0E0,0E0,0E0],"parents":[2147483647,0,0,1,1,2,2,3,3,4,4,5,5,6,6,7,7,8,8,9,9,10,10,11,11,12,12,13,13,14,14,15,15,16,16,17,17,18,18,19,19,20,20,21,21,22,22,24,24,25,25,26,26,27,27,28,28,29,29,30,30],"right_children":[2,4,6,8,10,12,14,16,18,20,22,24,26,28,30,32,34,36,38,40,42,44,46,-1,48,50,52,54,56,58,60,-1,-1,-1,-1,-1,-1,-1,-1,-1,-1,-1,-1,-1,-1,-1,-1,-1,-1,-1,-1,-1,-1,-1,-1,-1,-1,-1,-1,-1,-1],"split_conditions":[2.2836727E-1,5.057811E-1,4.0614158E-2,4.6176597E-1,5.278076E-1,1.4308828E-1,4.192199E-1,5.5273426E-1,1.1133697E-2,5.3077626E-1,4.9034008E-1,-9.406623E-2,4.0570962E-1,-1.0263371E-2,5.2233875E-1,3.2674688E-1,1.4447016E-1,4.8355475E-1,-3.993757E-2,2.2303751E-1,4.554169E-1,2.7501076E-2,5.225032E-1,-6.385322E-2,4.797987E-1,-7.743697E-2,4.7004547E-2,1.2474352E-1,3.9379227E-1,3.878455E-2,1.0734237E-1,-7.167519E-2,2.4002014E-2,-4.8797256E-3,-6.6606686E-2,-5.944704E-2,-1.4154996E-2,2.7421877E-2,-6.313468E-2,-6.439834E-2,6.299576E-2,-6.503284E-2,3.0822411E-2,-5.5433996E-2,1.3354803E-2,-5.2812543E-2,-6.554281E-2,-6.2435806E-2,5.107513E-2,-6.592407E-2,5.0424535E-2,-5.6766786E-2,7.228543E-2,6.224655E-2,-5.9156675E-2,-6.71828E-4,4.3191846E-2,6.332551E-2,-2.4747973E-2,6.955562E-2,-8.156383E-2],"split_indices":[2,29,6,5,5,19,3,8,7,8,31,33,1,20,0,3,19,4,32,2,5,6,31,0,5,32,10,36,1,26,36,0,0,0,0,0,0,0,0,0,0,0,0,0,0,0,0,0,0,0,0,0,0,0,0,0,0,0,0,0,0],"split_type":[0,0,0,0,0,0,0,0,0,0,0,0,0,0,0,0,0,0,0,0,0,0,0,0,0,0,0,0,0,0,0,0,0,0,0,0,0,0,0,0,0,0,0,0,0,0,0,0,0,0,0,0,0,0,0,0,0,0,0,0,0],"sum_hessian":[1.3595522E4,9.310498E3,4.285024E3,6.3887656E3,2.921733E3,2.5502214E2,4.0300017E3,1.187094E3,5.201672E3,6.776326E2,2.2441003E3,6.8213234E1,1.8680891E2,2.1185918E3,1.9114098E3,1.8317683E2,1.0039171E3,1.0009582E3,4.2007134E3,3.337125E2,3.4392017E2,8.201088E1,2.1620894E3,1.1821976E1,5.639126E1,1.7738698E2,9.4219265E0,5.59236E2,1.5593557E3,1.8982512E3,1.3158644E1,6.360002E1,1.1957681E2,2.1453636E1,9.824635E2,6.724616E2,3.2849658E2,3.9688357E3,2.3187769E2,3.142713E2,1.9441175E1,1.0074393E2,2.4317622E2,2.7719418E1,5.429146E1,3.377272E2,1.8243622E3,3.4314697E0,5.295979E1,1.74808E2,2.5789762E0,4.2294693E0,5.192457E0,5.5397705E2,5.2589836E0,8.453091E2,7.140467E2,1.8889504E3,9.30078E0,4.330974E0,8.82767E0],"tree_param":{"num_deleted":"0","num_feature":"40","num_nodes":"61","size_leaf_vector":"1"}},{"base_weights":[-1.6193882E-3,-3.6722744E-1,7.8173065E-1,-5.842545E-2,-1.0397708E0,-7.392348E-1,8.7688196E-1,-1.0671417E0,1.4874147E-1,-5.695731E-1,-1.2090076E0,-1.1083742E0,5.408863E-1,5.721315E-1,1.2095231E0,3.751146E-1,-1.3294845E0,-9.34198E-1,3.9305466E-1,-1.1392938E0,1.8746983E-1,-1.2245703E0,7.4542284E-1,7.655891E-2,-1.2116598E0,-1.1757934E0,1.2046394E0,6.3462853E-1,-1.4227182E0,1.2336001E0,1.20115146E-1,-4.4003103E-2,4.244074E-2,3.969522E-2,-6.738835E-2,-6.070022E-2,-2.3423625E-2,2.5076125E-2,-5.6006428E-2,-6.3005425E-2,-2.503176E-2,-6.318544E-2,3.3975173E-2,-5.2610934E-2,-6.565381E-2,-7.362377E-2,9.7148016E-2,-6.2508054E-2,3.5873752E-2,5.4376493E-3,-6.38476E-2,-1.9417701E-2,7.8284405E-2,1.4908585E-2,5.4768223E-2,-7.796665E-2,9.870431E-3,-2.1208895E-2,6.213079E-2,-6.567169E-2,2.4658406E-2],"categories":[],"categories_nodes":[],"categories_segments":[],"categories_sizes":[],"default_left":[0,0,0,0,0,0,0,0,0,0,0,0,0,0,0,0,0,0,0,0,0,0,0,0,0,0,0,0,0,0,0,0,0,0,0,0,0,0,0,0,0,0,0,0,0,0,0,0,0,0,0,0,0,0,0,0,0,0,0,0,0],"id":16,"left_children":[1,3,5,7,9,11,13,15,17,19,21,23,25,27,29,31,33,35,37,39,41,43,45,-1,47,49,51,53,55,57,59,-1,-1,-1,-1,-1,-1,-1,-1,-1,-1,-1,-1,-1,-1,-1,-1,-1,-1,-1,-1,-1,-1,-1,-1,-1,-1,-1,-1,-1,-1],"loss_changes":[3.8260168E3,1.8915298E3,6.15855E2,1.3047917E3,2.2737305E2,1.1912477E2,4.0491333E2,4.0302014E2,1.370936E3,3.2818683E2,6.498657E1,5.502104E1,6.615073E1,2.6146826E2,5.000659E1,9.856003E1,3.6021973E1,1.2372974E2,6.9441077E2,3.2858948E1,2.3462428E2,3.0504395E1,4.871253E1,0E0,1.487738E1,2.2630901E0,2.4456276E1,3.139264E2,1.4428345E1,2.848584E1,2.3351858E1,0E0,0E0,0E0,0E0,0E0,0E0,0E0,0E0,0E0,0E0,0E0,0E0,0E0,0E0,0E0,0E0,0E0,0E0,0E0,0E0,0E0,0E0,0E0,0E0,0E0,0E0,0E0,0E0,0E0,0E0],"parents":[2147483647,0,0,1,1,2,2,3,3,4,4,5,5,6,6,7,7,8,8,9,9,10,10,11,11,12,12,13,13,14,14,15,15,16,16,17,17,18,18,19,19,20,20,21,21,22,22,24,24,25,25,26,26,27,27,28,28,29,29,30,30],"right_children":[2,4,6,8,10,12,14,16,18,20,22,24,26,28,30,32,34,36,38,40,42,44,46,-1,48,50,52,54,56,58,60,-1,-1,-1,-1,-1,-1,-1,-1,-1,-1,-1,-1,-1,-1,-1,-1,-1,-1,-1,-1,-1,-1,-1,-1,-1,-1,-1,-1,-1,-1],"split_conditions":[2.2791746E-1,5.0416434E-1,4.0614158E-2,3.355792E-1,4.294452E-1,4.0570962E-1,4.1806614E-1,5.454683E-1,1.0870397E-2,1.5297726E-2,3.9257067E-1,7.984927E-2,-9.406623E-2,5.738335E-1,-7.461834E-2,3.45155E-2,3.1721935E-1,4.799183E-1,-5.693239E-2,5.3146815E-1,4.317972E-1,7.651017E-2,-8.513814E-2,7.655891E-2,-6.155497E-2,5.410801E-1,3.685348E-1,3.9468655E-1,1.0392377E-1,-8.2087755E-2,4.1203088E-1,-4.4003103E-2,4.244074E-2,3.969522E-2,-6.738835E-2,-6.070022E-2,-2.3423625E-2,2.5076125E-2,-5.6006428E-2,-6.3005425E-2,-2.503176E-2,-6.318544E-2,3.3975173E-2,-5.2610934E-2,-6.565381E-2,-7.362377E-2,9.7148016E-2,-6.2508054E-2,3.5873752E-2,5.4376493E-3,-6.38476E-2,-1.9417701E-2,7.8284405E-2,1.4908585E-2,5.4768223E-2,-7.796665E-2,9.870431E-3,-2.1208895E-2,6.213079E-2,-6.567169E-2,2.4658406E-2],"split_indices":[2,29,6,1,1,1,3,8,7,34,3,24,33,4,35,14,1,4,35,8,9,37,33,0,12,9,3,1,38,12,1,0,0,0,0,0,0,0,0,0,0,0,0,0,0,0,0,0,0,0,0,0,0,0,0,0,0,0,0,0,0],"split_type":[0,0,0,0,0,0,0,0,0,0,0,0,0,0,0,0,0,0,0,0,0,0,0,0,0,0,0,0,0,0,0,0,0,0,0,0,0,0,0,0,0,0,0,0,0,0,0,0,0,0,0,0,0,0,0,0,0,0,0,0,0],"sum_hessian":[1.3357038E4,9.107079E3,4.249959E3,6.2420806E3,2.8649988E3,2.498242E2,4.0001345E3,1.0628428E3,5.179238E3,7.5942413E2,2.1055745E3,1.9401239E2,5.581181E1,2.0890046E3,1.9111299E3,1.6350847E2,8.9933435E2,9.5284515E2,4.2263926E3,4.3303452E2,3.2638965E2,2.0893113E3,1.6263287E1,6.785231E0,1.8722716E2,1.5347303E1,4.0464504E1,2.0262072E3,6.279755E1,1.8696757E3,4.145429E1,4.4565136E1,1.1894334E2,7.315098E0,8.920193E2,5.942281E2,3.5861703E2,3.9443247E3,2.8206805E2,3.6333044E2,6.9704056E1,8.224681E1,2.4414284E2,7.1325134E2,1.3760599E3,5.6218176E0,1.0641469E1,1.839087E2,3.3184521E0,1.1148963E0,1.4232408E1,7.462659E0,3.3001846E1,1.1719943E3,8.542129E2,5.794864E1,4.848909E0,9.863919E0,1.8598116E3,8.039549E0,3.341474E1],"tree_param":{"num_deleted":"0","num_feature":"40","num_nodes":"61","size_leaf_vector":"1"}},{"base_weights":[-3.4679607E-3,-3.5104078E-1,7.776081E-1,-1.256004E0,-1.69873E-1,-5.758201E-1,8.766104E-1,-1.2595341E0,6.8219113E-1,-1.1040338E0,1.0614701E-3,-8.6919755E-1,3.782189E-1,6.1479366E-1,1.169212E0,-6.371096E-2,-7.985821E-1,-1.5159192E-2,6.3380964E-2,4.421932E-1,-1.2167612E0,-8.899444E-1,1.290477E-1,5.722887E-1,-1.0772215E0,1.3908395E0,-1.2352482E0,2.84642E-1,1.0577215E0,-5.9960264E-1,1.202132E0,4.9042455E-3,-6.4926095E-2,-5.1483143E-2,6.658507E-2,1.0284891E-2,-6.282706E-2,-4.880334E-2,2.664797E-2,1.5449177E-2,-2.6023502E-2,-5.825853E-2,7.108382E-2,4.7755553E-3,-5.8763355E-2,7.388874E-2,-3.9807037E-2,-7.2102E-2,6.536948E-2,2.5615175E-3,5.4839503E-2,8.295552E-3,6.0649127E-2,-5.2512415E-2,5.3685844E-2,6.0783286E-2,-7.189711E-2],"categories":[],"categories_nodes":[],"categories_segments":[],"categories_sizes":[],"default_left":[0,0,0,0,0,0,0,0,0,0,0,0,0,0,0,0,0,0,0,0,0,0,0,0,0,0,0,0,0,0,0,0,0,0,0,0,0,0,0,0,0,0,0,0,0,0,0,0,0,0,0,0,0,0,0,0,0],"id":17,"left_children":[1,3,5,7,9,11,13,15,17,19,21,23,25,27,29,-1,31,-1,-1,33,35,37,39,41,43,45,47,49,51,53,55,-1,-1,-1,-1,-1,-1,-1,-1,-1,-1,-1,-1,-1,-1,-1,-1,-1,-1,-1,-1,-1,-1,-1,-1,-1,-1],"loss_changes":[3.5611626E3,1.4881146E3,5.417827E2,1.121875E1,1.207963E3,7.756719E1,2.8768408E2,9.214844E0,2.3464355E0,2.0449329E2,7.2946405E2,6.3995056E1,1.0889478E2,2.9055072E2,1.0417676E2,0E0,2.2250023E1,0E0,0E0,1.0642948E2,6.1986206E1,9.897681E1,6.5386E2,4.195694E1,2.1389572E1,8.928719E0,1.5463707E1,2.1622208E2,1.1735907E2,2.6109982E1,6.408154E1,0E0,0E0,0E0,0E0,0E0,0E0,0E0,0E0,0E0,0E0,0E0,0E0,0E0,0E0,0E0,0E0,0E0,0E0,0E0,0E0,0E0,0E0,0E0,0E0,0E0,0E0],"parents":[2147483647,0,0,1,1,2,2,3,3,4,4,5,5,6,6,7,7,8,8,9,9,10,10,11,11,12,12,13,13,14,14,16,16,19,19,20,20,21,21,22,22,23,23,24,24,25,25,26,26,27,27,28,28,29,29,30,30],"right_children":[2,4,6,8,10,12,14,16,18,20,22,24,26,28,30,-1,32,-1,-1,34,36,38,40,42,44,46,48,50,52,54,56,-1,-1,-1,-1,-1,-1,-1,-1,-1,-1,-1,-1,-1,-1,-1,-1,-1,-1,-1,-1,-1,-1,-1,-1,-1,-1],"split_conditions":[2.2883044E-1,8.494574E-2,1.3673866E-1,7.651755E-2,4.5921457E-1,2.2981048E-2,4.192199E-1,8.367938E-2,2.168172E-1,4.021799E-1,1.0722578E-2,3.6966205E-1,6.102604E-1,3.9468655E-1,4.075691E-2,-6.371096E-2,6.1176264E-1,-1.5159192E-2,6.3380964E-2,3.7850797E-2,1.4447016E-1,4.8268396E-1,2.0573497E-2,3.0369908E-2,4.124002E-1,1.2580757E-1,5.610661E-1,-7.244015E-2,3.3156744E-1,3.963089E-1,5.1089215E-1,4.9042455E-3,-6.4926095E-2,-5.1483143E-2,6.658507E-2,1.0284891E-2,-6.282706E-2,-4.880334E-2,2.664797E-2,1.5449177E-2,-2.6023502E-2,-5.825853E-2,7.108382E-2,4.7755553E-3,-5.8763355E-2,7.388874E-2,-3.9807037E-2,-7.2102E-2,6.536948E-2,2.5615175E-3,5.4839503E-2,8.295552E-3,6.0649127E-2,-5.2512415E-2,5.3685844E-2,6.0783286E-2,-7.189711E-2],"split_indices":[2,18,18,14,5,7,3,18,2,0,7,1,0,1,6,0,9,0,0,10,19,0,7,6,8,36,1,13,30,1,0,0,0,0,0,0,0,0,0,0,0,0,0,0,0,0,0,0,0,0,0,0,0,0,0,0,0],"split_type":[0,0,0,0,0,0,0,0,0,0,0,0,0,0,0,0,0,0,0,0,0,0,0,0,0,0,0,0,0,0,0,0,0,0,0,0,0,0,0,0,0,0,0,0,0,0,0,0,0,0,0,0,0,0,0,0,0],"sum_hessian":[1.3115543E4,9.07693E3,4.0386133E3,1.5130519E3,7.563878E3,2.749565E2,3.7636567E3,1.5106506E3,2.4013333E0,1.1691248E3,6.394753E3,2.1035803E2,6.459847E1,1.9879564E3,1.7757004E3,1.4623004E3,4.835014E1,1.0746428E0,1.3266904E0,7.9244446E1,1.0898804E3,8.024385E2,5.5923145E3,2.6307959E1,1.8405008E2,3.9774048E1,2.4824425E1,1.1399199E3,8.480364E2,3.212979E1,1.7435707E3,1.7595514E1,3.0754625E1,2.9791435E1,4.945301E1,2.9536478E1,1.0603439E3,7.569382E2,4.5500294E1,4.379568E3,1.212747E3,8.51611E0,1.779185E1,1.4202191E1,1.6984789E2,3.856531E1,1.2087362E0,2.3357615E1,1.4668096E0,8.86269E2,2.5365097E2,1.2605458E2,7.219818E2,2.560611E1,6.5236835E0,1.7352151E3,8.3556385E0],"tree_param":{"num_deleted":"0","num_feature":"40","num_nodes":"57","size_leaf_vector":"1"}},{"base_weights":[-1.4630116E-3,-3.6325875E-1,7.0854115E-1,-1.1733439E0,-1.5262403E-1,4.336935E-1,1.1197709E0,-1.1808217E0,6.50677E-2,2.7848962E-1,-6.418602E-1,1.6531771E-1,1.2053745E0,1.1569455E0,-9.3927187E-1,-6.5799797E-1,-1.2182871E0,6.3688076E-1,-2.790324E-1,-2.0428818E-1,-1.1193244E0,-7.9561025E-2,8.7611526E-1,1.239534E0,-1.532117E-1,4.1429615E-1,1.229626E0,-1.4558637E0,4.0770137E-1,-6.1311394E-2,5.9086453E-2,-6.27296E-2,-3.9913908E-2,1.300219E-2,6.840007E-2,9.773432E-3,-5.2229043E-2,-4.6644565E-2,1.0014282E-2,-5.94458E-2,1.3789612E-2,6.9142194E-3,-5.8008876E-2,-5.28919E-2,4.77146E-2,4.7848664E-2,6.488737E-2,-1.9516416E-2,4.9917344E-2,-1.2058007E-2,6.175508E-2,2.8049767E-2,-8.169905E-2,5.893687E-2,-5.7030678E-2],"categories":[],"categories_nodes":[],"categories_segments":[],"categories_sizes":[],"default_left":[0,0,0,0,0,0,0,0,0,0,0,0,0,0,0,0,0,0,0,0,0,0,0,0,0,0,0,0,0,0,0,0,0,0,0,0,0,0,0,0,0,0,0,0,0,0,0,0,0,0,0,0,0,0,0],"id":18,"left_children":[1,3,5,7,9,11,13,15,-1,17,19,21,23,25,27,29,31,33,35,37,39,41,43,45,-1,47,49,51,53,-1,-1,-1,-1,-1,-1,-1,-1,-1,-1,-1,-1,-1,-1,-1,-1,-1,-1,-1,-1,-1,-1,-1,-1,-1,-1],"loss_changes":[3.3397253E3,1.4694038E3,4.955498E2,3.4423096E1,1.4420979E3,5.449282E2,1.3561401E2,3.3914062E1,0E0,7.26449E2,6.688865E2,3.4020554E2,1.0283606E2,9.269629E1,2.2665354E1,1.27611725E2,2.4198242E1,6.093068E2,5.171019E2,4.9315582E2,1.4899854E2,3.4252145E2,7.672604E1,9.850708E0,0E0,7.343704E1,1.2960449E1,9.231449E0,1.2774183E1,0E0,0E0,0E0,0E0,0E0,0E0,0E0,0E0,0E0,0E0,0E0,0E0,0E0,0E0,0E0,0E0,0E0,0E0,0E0,0E0,0E0,0E0,0E0,0E0,0E0,0E0],"parents":[2147483647,0,0,1,1,2,2,3,3,4,4,5,5,6,6,7,7,9,9,10,10,11,11,12,12,13,13,14,14,15,15,16,16,17,17,18,18,19,19,20,20,21,21,22,22,23,23,25,25,26,26,27,27,28,28],"right_children":[2,4,6,8,10,12,14,16,-1,18,20,22,24,26,28,30,32,34,36,38,40,42,44,46,-1,48,50,52,54,-1,-1,-1,-1,-1,-1,-1,-1,-1,-1,-1,-1,-1,-1,-1,-1,-1,-1,-1,-1,-1,-1,-1,-1,-1,-1],"split_conditions":[1.4056358E-1,1.0556806E-2,3.9379227E-1,3.4295022E-2,2.4298966E-2,3.471807E-3,2.979297E-1,-8.8986725E-2,6.50677E-2,-1.3891502E-1,4.734441E-1,1.5515167E-1,-3.5941143E-2,3.0972975E-1,1.5996748E-1,4.0311176E-1,-5.061154E-2,5.554033E-1,4.4736716E-1,1.4933884E-2,4.6746403E-2,4.609431E-1,7.772148E-3,4.928917E-3,-1.532117E-1,-4.7595307E-2,2.828825E-1,1.0609102E-1,4.7059748E-1,-6.1311394E-2,5.9086453E-2,-6.27296E-2,-3.9913908E-2,1.300219E-2,6.840007E-2,9.773432E-3,-5.2229043E-2,-4.6644565E-2,1.0014282E-2,-5.94458E-2,1.3789612E-2,6.9142194E-3,-5.8008876E-2,-5.28919E-2,4.77146E-2,4.7848664E-2,6.488737E-2,-1.9516416E-2,4.9917344E-2,-1.2058007E-2,6.175508E-2,2.8049767E-2,-8.169905E-2,5.893687E-2,-5.7030678E-2],"split_indices":[18,34,1,7,34,17,20,32,0,20,30,18,13,31,18,1,12,8,30,7,6,31,7,17,0,12,4,36,0,0,0,0,0,0,0,0,0,0,0,0,0,0,0,0,0,0,0,0,0,0,0,0,0,0,0],"split_type":[0,0,0,0,0,0,0,0,0,0,0,0,0,0,0,0,0,0,0,0,0,0,0,0,0,0,0,0,0,0,0,0,0,0,0,0,0,0,0,0,0,0,0,0,0,0,0,0,0,0,0,0,0,0,0],"sum_hessian":[1.2999287E4,8.611584E3,4.3877036E3,1.7761348E3,6.835449E3,2.6311885E3,1.7565148E3,1.7713053E3,4.8295174E0,3.6337917E3,3.2016572E3,1.9531388E3,6.780498E2,1.7257949E3,3.071985E1,1.1968503E2,1.6516202E3,2.211825E3,1.4219669E3,1.6713641E3,1.5302932E3,1.4533347E3,4.9980408E2,6.7337213E2,4.6777096E0,1.5443927E2,1.5713557E3,2.2145687E1,8.574164E0,9.1696526E1,2.7988506E1,1.5183865E3,1.3323373E2,1.4604368E3,7.5138824E2,8.783154E2,5.436514E2,5.962545E2,1.0751096E3,1.4577264E3,7.256678E1,1.2102317E3,2.43103E2,1.893186E1,4.8087222E2,1.1800897E2,5.5536316E2,6.509376E1,8.934551E1,5.668468E0,1.5656873E3,1.6226377E0,2.0523048E1,5.8831477E0,2.6910167E0],"tree_param":{"num_deleted":"0","num_feature":"40","num_nodes":"55","size_leaf_vector":"1"}},{"base_weights":[5.7413178E-3,-3.448808E-1,6.896104E-1,-9.733521E-2,-1.0549951E0,-4.6778244E-1,7.864378E-1,-1.0289876E0,1.0170434E-1,-4.1467774E-1,-1.2230603E0,-8.090097E-1,3.285645E-1,5.358974E-1,1.1272924E0,-2.8307417E-1,-1.2263509E0,-8.575873E-1,2.8816962E-1,8.908614E-2,-1.2980839E0,-1.2287138E0,3.514333E-1,1.016124E0,-9.69979E-1,8.629666E-1,-1.004686E0,2.3888534E-1,1.0162587E0,-1.1460362E-1,1.1657013E0,-7.1424976E-2,1.0739625E-2,-6.252488E-2,8.053451E-2,-5.725797E-2,-2.1332165E-2,-5.870272E-2,1.9629363E-2,-5.7542603E-2,4.328939E-2,-6.650284E-2,-2.5287995E-2,-4.2704664E-2,-6.253498E-2,-4.527493E-2,8.62473E-2,-4.7962517E-2,7.120227E-2,7.450469E-3,-5.3424593E-2,-2.422273E-3,6.9763504E-2,-6.686311E-2,7.4411586E-2,5.3313326E-2,1.407911E-3,-1.4238444E-3,5.854348E-2,-6.158259E-2,4.63961E-2,5.9565272E-2,-8.707148E-3],"categories":[],"categories_nodes":[],"categories_segments":[],"categories_sizes":[],"default_left":[0,0,0,0,0,0,0,0,0,0,0,0,0,0,0,0,0,0,0,0,0,0,0,0,0,0,0,0,0,0,0,0,0,0,0,0,0,0,0,0,0,0,0,0,0,0,0,0,0,0,0,0,0,0,0,0,0,0,0,0,0,0,0],"id":19,"left_children":[1,3,5,7,9,11,13,15,17,19,21,23,25,27,29,31,33,35,37,39,41,43,45,47,49,51,53,55,57,59,61,-1,-1,-1,-1,-1,-1,-1,-1,-1,-1,-1,-1,-1,-1,-1,-1,-1,-1,-1,-1,-1,-1,-1,-1,-1,-1,-1,-1,-1,-1,-1,-1],"loss_changes":[3.052476E3,1.4792444E3,4.839065E2,1.1574786E3,2.3358301E2,9.095167E1,3.3944922E2,1.6141064E2,9.203057E2,2.0204956E2,1.5764648E1,6.970677E1,7.269799E1,3.2747046E2,8.055713E1,1.3215279E2,6.1516357E1,1.03281006E2,6.5810077E2,2.8019348E2,3.5034485E0,1.3069824E1,1.3543984E1,1.7035915E1,2.3911026E1,3.5244343E1,2.629005E1,2.4766438E2,1.4174005E2,6.110701E1,5.6315918E1,0E0,0E0,0E0,0E0,0E0,0E0,0E0,0E0,0E0,0E0,0E0,0E0,0E0,0E0,0E0,0E0,0E0,0E0,0E0,0E0,0E0,0E0,0E0,0E0,0E0,0E0,0E0,0E0,0E0,0E0,0E0,0E0],"parents":[2147483647,0,0,1,1,2,2,3,3,4,4,5,5,6,6,7,7,8,8,9,9,10,10,11,11,12,12,13,13,14,14,15,15,16,16,17,17,18,18,19,19,20,20,21,21,22,22,23,23,24,24,25,25,26,26,27,27,28,28,29,29,30,30],"right_children":[2,4,6,8,10,12,14,16,18,20,22,24,26,28,30,32,34,36,38,40,42,44,46,48,50,52,54,56,58,60,62,-1,-1,-1,-1,-1,-1,-1,-1,-1,-1,-1,-1,-1,-1,-1,-1,-1,-1,-1,-1,-1,-1,-1,-1,-1,-1,-1,-1,-1,-1,-1,-1],"split_conditions":[2.2496855E-1,5.225032E-1,1.3692395E-1,4.6569967E-1,5.149326E-1,2.1236062E-2,4.192199E-1,5.5273426E-1,1.0722578E-2,6.121274E-1,7.71375E-2,3.590094E-1,6.041348E-1,3.9468655E-1,3.45155E-2,3.2674688E-1,6.1052993E-2,4.7881347E-1,-5.515656E-2,-5.3954404E-2,6.691663E-1,-7.830408E-2,4.9680865E-1,-7.210758E-2,9.022301E-2,2.2787124E-2,5.610661E-1,-1.845115E-2,3.0043048E-1,-3.2412454E-1,-7.461834E-2,-7.1424976E-2,1.0739625E-2,-6.252488E-2,8.053451E-2,-5.725797E-2,-2.1332165E-2,-5.870272E-2,1.9629363E-2,-5.7542603E-2,4.328939E-2,-6.650284E-2,-2.5287995E-2,-4.2704664E-2,-6.253498E-2,-4.527493E-2,8.62473E-2,-4.7962517E-2,7.120227E-2,7.450469E-3,-5.3424593E-2,-2.422273E-3,6.9763504E-2,-6.686311E-2,7.4411586E-2,5.3313326E-2,1.407911E-3,-1.4238444E-3,5.854348E-2,-6.158259E-2,4.63961E-2,5.9565272E-2,-8.707148E-3],"split_indices":[2,31,18,5,5,7,3,8,7,30,14,1,20,1,14,3,14,4,12,12,8,15,1,12,37,7,1,20,30,20,35,0,0,0,0,0,0,0,0,0,0,0,0,0,0,0,0,0,0,0,0,0,0,0,0,0,0,0,0,0,0,0,0],"split_type":[0,0,0,0,0,0,0,0,0,0,0,0,0,0,0,0,0,0,0,0,0,0,0,0,0,0,0,0,0,0,0,0,0,0,0,0,0,0,0,0,0,0,0,0,0,0,0,0,0,0,0,0,0,0,0,0,0,0,0,0,0,0,0],"sum_hessian":[1.2728348E4,8.414632E3,4.313716E3,6.2403765E3,2.1742559E3,3.327287E2,3.9809873E3,1.0977805E3,5.1425957E3,4.527554E2,1.7215005E3,2.3291212E2,9.9816574E1,2.2959517E3,1.6850356E3,2.3019957E2,8.67581E2,8.3634186E2,4.306254E3,2.8890564E2,1.6384978E2,1.71556E3,5.940434E0,1.844645E1,2.1446567E2,7.150729E1,2.830928E1,1.4196598E3,8.762918E2,5.049119E1,1.6345446E3,6.917703E1,1.6102254E2,8.6081366E2,6.7673335E0,5.0061823E2,3.3572363E2,2.863317E2,4.019922E3,1.11085434E2,1.778202E2,1.5684201E2,7.0077653E0,9.731054E1,1.6182495E3,3.2797787E0,2.6606553E0,2.925936E0,1.5520514E1,1.7311787E1,1.9715388E2,2.6700161E1,4.4807133E1,2.5386131E1,2.9231496E0,2.8735468E2,1.132305E3,1.1307017E2,7.632216E2,2.4286844E1,2.6204346E1,1.6040032E3,3.0541328E1],"tree_param":{"num_deleted":"0","num_feature":"40","num_nodes":"63","size_leaf_vector":"1"}},{"base_weights":[-1.7155826E-3,2.7018523E-1,-8.360563E-1,1.2064027E-2,8.962112E-1,-1.1073984E0,-3.3460367E-1,-1.1142273E0,1.940988E-1,2.1113552E-1,1.010191E0,-7.504624E-1,-1.2066944E0,-8.71511E-1,9.537112E-2,-8.422563E-2,-1.2258239E0,-7.576926E-1,4.0358907E-1,5.7345396E-1,-7.684286E-1,5.2412015E-1,1.1112866E0,-1.2063502E0,-4.1935408E-1,-2.8918517E-1,-1.2320044E0,-1.0742483E0,9.8605746E-1,9.5565647E-1,-7.063611E-1,-6.1073847E-2,4.337672E-2,-6.266338E-2,3.4291666E-2,-5.4253697E-2,-2.0364216E-2,3.540798E-2,1.3195975E-3,6.2016625E-2,1.8273706E-2,3.470705E-2,-4.9782295E-2,-1.03387525E-2,4.5057308E-2,4.022482E-2,5.8938175E-2,-6.3847415E-2,3.479829E-2,-5.4192364E-2,5.0559737E-2,-6.0237862E-2,4.476558E-2,-5.9666153E-2,-6.697842E-2,1.3623751E-2,-5.626635E-2,-5.5435177E-2,7.649883E-2,-4.0544998E-2,5.6056857E-2,4.080643E-2,-5.411599E-2],"categories":[],"categories_nodes":[],"categories_segments":[],"categories_sizes":[],"default_left":[0,0,0,0,0,0,0,0,0,0,0,0,0,0,0,0,0,0,0,0,0,0,0,0,0,0,0,0,0,0,0,0,0,0,0,0,0,0,0,0,0,0,0,0,0,0,0,0,0,0,0,0,0,0,0,0,0,0,0,0,0,0,0],"id":20,"left_children":[1,3,5,7,9,11,13,15,17,19,21,23,25,27,29,31,33,35,37,39,41,43,45,47,49,51,53,55,57,59,61,-1,-1,-1,-1,-1,-1,-1,-1,-1,-1,-1,-1,-1,-1,-1,-1,-1,-1,-1,-1,-1,-1,-1,-1,-1,-1,-1,-1,-1,-1,-1,-1],"loss_changes":[2.8434592E3,1.527565E3,4.1880957E2,1.3727573E3,2.1528809E2,6.99292E1,2.5013138E2,1.0697888E2,1.149583E3,1.4060919E2,1.1567749E2,6.55531E1,3.591626E1,1.8249316E2,4.161353E2,1.0079296E2,4.4952393E1,1.188797E2,5.42781E2,3.9612625E1,3.6270473E1,1.1295995E2,3.9577393E1,2.5544434E1,2.4353383E2,4.796978E1,4.724365E0,3.0218933E1,5.630491E1,8.5976074E1,1.7967982E2,0E0,0E0,0E0,0E0,0E0,0E0,0E0,0E0,0E0,0E0,0E0,0E0,0E0,0E0,0E0,0E0,0E0,0E0,0E0,0E0,0E0,0E0,0E0,0E0,0E0,0E0,0E0,0E0,0E0,0E0,0E0,0E0],"parents":[2147483647,0,0,1,1,2,2,3,3,4,4,5,5,6,6,7,7,8,8,9,9,10,10,11,11,12,12,13,13,14,14,15,15,16,16,17,17,18,18,19,19,20,20,21,21,22,22,23,23,24,24,25,25,26,26,27,27,28,28,29,29,30,30],"right_children":[2,4,6,8,10,12,14,16,18,20,22,24,26,28,30,32,34,36,38,40,42,44,46,48,50,52,54,56,58,60,62,-1,-1,-1,-1,-1,-1,-1,-1,-1,-1,-1,-1,-1,-1,-1,-1,-1,-1,-1,-1,-1,-1,-1,-1,-1,-1,-1,-1,-1,-1,-1,-1],"split_conditions":[5.0100255E-1,2.3280889E-1,3.7829423E-1,4.511621E-1,1.6343176E-2,4.9642342E-1,1.5297726E-2,5.4782593E-1,1.1262618E-2,6.4308653E-3,2.3706046E-1,2.7308404E-2,4.9376824E-1,5.2562785E-1,-4.7311634E-2,3.2674688E-1,4.0204912E-2,5.5353975E-1,8.294478E-4,-1.090378E-2,-8.478585E-3,5.3212893E-1,5.213512E-1,1.0251525E-1,-7.423261E-2,9.9488914E-2,1.1413735E-1,7.5743064E-2,3.617388E-2,3.853619E-1,8.902371E-2,-6.1073847E-2,4.337672E-2,-6.266338E-2,3.4291666E-2,-5.4253697E-2,-2.0364216E-2,3.540798E-2,1.3195975E-3,6.2016625E-2,1.8273706E-2,3.470705E-2,-4.9782295E-2,-1.03387525E-2,4.5057308E-2,4.022482E-2,5.8938175E-2,-6.3847415E-2,3.479829E-2,-5.4192364E-2,5.0559737E-2,-6.0237862E-2,4.476558E-2,-5.9666153E-2,-6.697842E-2,1.3623751E-2,-5.626635E-2,-5.5435177E-2,7.649883E-2,-4.0544998E-2,5.6056857E-2,4.080643E-2,-5.411599E-2],"split_indices":[29,2,3,5,11,30,34,8,7,26,2,6,9,9,12,3,34,8,26,20,20,8,8,18,35,18,18,24,10,3,37,0,0,0,0,0,0,0,0,0,0,0,0,0,0,0,0,0,0,0,0,0,0,0,0,0,0,0,0,0,0,0,0],"split_type":[0,0,0,0,0,0,0,0,0,0,0,0,0,0,0,0,0,0,0,0,0,0,0,0,0,0,0,0,0,0,0,0,0,0,0,0,0,0,0,0,0,0,0,0,0,0,0,0,0,0,0,0,0,0,0,0,0,0,0,0,0,0,0],"sum_hessian":[1.2532102E4,9.452372E3,3.079729E3,6.693533E3,2.7588389E3,1.9975968E3,1.0821322E3,9.305965E2,5.762937E3,3.9393643E2,2.3649023E3,4.3662653E2,1.5609703E3,4.8077014E2,6.0136206E2,9.114171E1,8.394548E2,1.0391372E3,4.7238E3,2.8787326E2,1.0606318E2,4.0824292E2,1.9566594E3,1.825872E2,2.5403932E2,4.223789E1,1.5187324E3,4.338418E2,4.6928345E1,2.899954E2,3.113667E2,4.1395332E1,4.9746376E1,8.2791364E2,1.1541119E1,5.361363E2,5.030009E2,2.6130203E3,2.1107795E3,6.725603E1,2.2061723E2,1.3985467E1,9.2077705E1,1.3907889E2,2.6916403E2,3.5509702E2,1.6015625E3,1.7637054E2,6.2166653E0,1.736301E2,8.040923E1,2.3813686E1,1.84242E1,1.1259288E3,3.9280356E2,1.5695116E1,4.1814667E2,9.45944E0,3.7468903E1,2.4504303E1,2.654911E2,6.1429546E1,2.4993715E2],"tree_param":{"num_deleted":"0","num_feature":"40","num_nodes":"63","size_leaf_vector":"1"}},{"base_weights":[3.0525906E-3,2.614079E-1,-8.005116E-1,1.6776538E-2,8.9328265E-1,-2.4035397E-1,-1.0534252E0,-1.0958146E0,1.8908073E-1,-5.738646E-1,9.4656175E-1,7.6627135E-2,-9.3982035E-1,-1.2096125E0,-8.1226003E-1,-1.6312037E-1,-1.2319101E0,-7.3411065E-1,3.8490367E-1,-8.353047E-1,1.2200662E0,6.989471E-1,1.1359504E0,-5.9385794E-1,5.7988864E-1,1.0492985E0,-1.1143568E0,-1.2142327E0,6.866976E-2,7.642797E-1,-9.962991E-1,-5.958425E-2,2.821101E-2,7.59968E-2,-6.2355287E-2,-4.5681562E-2,6.785018E-3,2.3151172E-2,-5.291706E-2,6.337794E-2,-5.8439504E-2,6.688831E-2,2.0627573E-3,3.8737155E-2,-4.593824E-2,5.722713E-2,-7.7919535E-2,-4.634602E-2,6.637476E-2,-5.2645516E-2,4.6143346E-2,-3.3451088E-2,8.11317E-2,-5.9088368E-2,2.3940114E-2,-6.0846932E-2,2.5510788E-2,-7.600255E-2,6.342725E-2,-3.449298E-2,-5.9683796E-2],"categories":[],"categories_nodes":[],"categories_segments":[],"categories_sizes":[],"default_left":[0,0,0,0,0,0,0,0,0,0,0,0,0,0,0,0,0,0,0,0,0,0,0,0,0,0,0,0,0,0,0,0,0,0,0,0,0,0,0,0,0,0,0,0,0,0,0,0,0,0,0,0,0,0,0,0,0,0,0,0,0],"id":21,"left_children":[1,3,5,7,9,11,13,15,17,19,21,23,25,27,29,31,33,35,37,39,41,43,45,47,49,51,53,55,-1,57,59,-1,-1,-1,-1,-1,-1,-1,-1,-1,-1,-1,-1,-1,-1,-1,-1,-1,-1,-1,-1,-1,-1,-1,-1,-1,-1,-1,-1,-1,-1],"loss_changes":[2.561628E3,1.4432622E3,4.250381E2,1.2907721E3,2.0424365E2,2.0739621E2,7.690796E1,1.14411255E2,1.0542693E3,4.4139355E1,1.1714673E2,2.1778368E2,1.0243378E2,1.6621338E1,2.3747968E2,8.7548515E1,3.483777E1,1.5948914E2,5.428606E2,5.817164E1,1.6237755E0,1.3467487E2,3.473633E1,1.7835686E2,2.0739838E2,2.4773397E1,2.9416473E1,6.4595947E0,0E0,1.0082031E2,4.339099E1,0E0,0E0,0E0,0E0,0E0,0E0,0E0,0E0,0E0,0E0,0E0,0E0,0E0,0E0,0E0,0E0,0E0,0E0,0E0,0E0,0E0,0E0,0E0,0E0,0E0,0E0,0E0,0E0,0E0,0E0],"parents":[2147483647,0,0,1,1,2,2,3,3,4,4,5,5,6,6,7,7,8,8,9,9,10,10,11,11,12,12,13,13,14,14,15,15,16,16,17,17,18,18,19,19,20,20,21,21,22,22,23,23,24,24,25,25,26,26,27,27,29,29,30,30],"right_children":[2,4,6,8,10,12,14,16,18,20,22,24,26,28,30,32,34,36,38,40,42,44,46,48,50,52,54,56,-1,58,60,-1,-1,-1,-1,-1,-1,-1,-1,-1,-1,-1,-1,-1,-1,-1,-1,-1,-1,-1,-1,-1,-1,-1,-1,-1,-1,-1,-1,-1,-1],"split_conditions":[5.0100255E-1,2.334925E-1,-8.5995E-2,4.511621E-1,1.3759059E-1,4.26787E-1,9.2297316E-2,1.5168554E-1,1.1262618E-2,2.3090482E-2,4.186567E-1,1.577352E-2,4.5307687E-1,8.118199E-2,8.682737E-2,3.2674688E-1,3.074243E-1,4.641419E-1,-5.693239E-2,3.7087813E-1,2.0980157E-2,1.002086E-1,5.2233875E-1,3.9841884E-1,-7.825228E-2,-8.225757E-2,1.029079E-1,2.6209003E-1,6.866976E-2,2.8348622E-1,5.8579475E-1,-5.958425E-2,2.821101E-2,7.59968E-2,-6.2355287E-2,-4.5681562E-2,6.785018E-3,2.3151172E-2,-5.291706E-2,6.337794E-2,-5.8439504E-2,6.688831E-2,2.0627573E-3,3.8737155E-2,-4.593824E-2,5.722713E-2,-7.7919535E-2,-4.634602E-2,6.637476E-2,-5.2645516E-2,4.6143346E-2,-3.3451088E-2,8.11317E-2,-5.9088368E-2,2.3940114E-2,-6.0846932E-2,2.5510788E-2,-7.600255E-2,6.342725E-2,-3.449298E-2,-5.9683796E-2],"split_indices":[29,2,16,5,18,0,18,19,7,7,3,34,30,14,36,3,1,0,35,1,26,24,0,1,13,35,25,2,0,3,9,0,0,0,0,0,0,0,0,0,0,0,0,0,0,0,0,0,0,0,0,0,0,0,0,0,0,0,0,0,0],"split_type":[0,0,0,0,0,0,0,0,0,0,0,0,0,0,0,0,0,0,0,0,0,0,0,0,0,0,0,0,0,0,0,0,0,0,0,0,0,0,0,0,0,0,0,0,0,0,0,0,0,0,0,0,0,0,0,0,0,0,0,0,0],"sum_hessian":[1.2336938E4,9.335984E3,3.0009539E3,6.7310674E3,2.6049175E3,9.340821E2,2.0668718E3,9.01916E2,5.8291514E3,9.093971E1,2.5139775E3,6.4339954E2,2.9068253E2,1.2520096E3,8.14862E2,1.1512644E2,7.8678955E2,1.01959674E3,4.8095547E3,7.9838715E1,1.1100995E1,1.0915414E3,1.4224363E3,2.7579004E2,3.676095E2,2.3044304E1,2.6763824E2,1.2503031E3,1.7065367E0,8.485063E1,7.3001135E2,4.742385E1,6.770259E1,3.776964E0,7.830126E2,8.4512146E2,1.7447528E2,4.5632354E3,2.4631898E2,1.0544868E1,6.9293846E1,9.970621E0,1.1303742E0,1.0431853E3,4.8356136E1,1.418488E3,3.9482858E0,2.3548653E2,4.0303513E1,6.3454594E1,3.041549E2,5.7235603E0,1.7320744E1,2.5702124E2,1.0616991E1,1.2486382E3,1.6649463E0,1.4979377E1,6.9871254E1,2.877528E2,4.4225858E2],"tree_param":{"num_deleted":"0","num_feature":"40","num_nodes":"61","size_leaf_vector":"1"}},{"base_weights":[-1.6165689E-3,-3.1258714E-1,6.221945E-1,-1.0880017E0,-1.1301892E-1,2.982492E-1,9.71429E-1,-1.1375414E0,-5.617247E-1,3.0617115E-1,-5.811635E-1,4.3798363E-1,-1.0778385E0,9.976329E-1,-6.188843E-1,-1.1865652E0,-5.977479E-1,-8.0794615E-1,1.7205759E0,-1.3659194E0,4.373228E-1,-2.4786983E-1,-1.1620103E0,1.50801735E-2,9.1110426E-1,5.430858E-1,-1.2952877E0,7.5180024E-1,1.1405905E0,-1.4471412E0,5.3281147E-2,-5.985817E-2,5.841071E-2,-5.4408263E-2,5.6381136E-2,-5.5746388E-2,1.2258268E-2,-1.3272226E-2,9.450128E-2,-7.1007036E-2,2.9619096E-2,5.9303876E-2,6.693034E-3,-5.750506E-2,5.5178995E-3,-6.0685635E-2,6.0446132E-2,-1.02539295E-2,5.6909066E-2,2.5867692E-3,5.1832546E-2,-4.369118E-2,6.347062E-2,-6.63623E-2,2.9401971E-2,4.7559056E-2,-3.6833595E-2,5.8244415E-2,1.6649513E-2,-8.4106885E-2,8.340354E-3],"categories":[],"categories_nodes":[],"categories_segments":[],"categories_sizes":[],"default_left":[0,0,0,0,0,0,0,0,0,0,0,0,0,0,0,0,0,0,0,0,0,0,0,0,0,0,0,0,0,0,0,0,0,0,0,0,0,0,0,0,0,0,0,0,0,0,0,0,0,0,0,0,0,0,0,0,0,0,0,0,0],"id":22,"left_children":[1,3,5,7,9,11,13,15,17,19,21,23,25,27,29,31,33,35,37,39,41,43,45,47,49,51,53,55,57,59,-1,-1,-1,-1,-1,-1,-1,-1,-1,-1,-1,-1,-1,-1,-1,-1,-1,-1,-1,-1,-1,-1,-1,-1,-1,-1,-1,-1,-1,-1,-1],"loss_changes":[2.347125E3,1.2493645E3,4.5507776E2,4.2447266E1,1.2605829E3,4.0227087E2,8.131543E1,3.9234985E1,8.239877E1,7.438372E2,5.8717505E2,3.796795E2,6.8699814E1,6.610803E1,4.619957E1,3.590735E1,1.0927161E2,4.255876E1,5.3332977E0,2.7040771E1,7.1409076E2,6.237239E2,1.3705774E2,2.482423E2,9.65777E1,2.531787E1,1.103598E1,2.0950269E2,2.321643E1,8.579628E0,0E0,0E0,0E0,0E0,0E0,0E0,0E0,0E0,0E0,0E0,0E0,0E0,0E0,0E0,0E0,0E0,0E0,0E0,0E0,0E0,0E0,0E0,0E0,0E0,0E0,0E0,0E0,0E0,0E0,0E0,0E0],"parents":[2147483647,0,0,1,1,2,2,3,3,4,4,5,5,6,6,7,7,8,8,9,9,10,10,11,11,12,12,13,13,14,14,15,15,16,16,17,17,18,18,19,19,20,20,21,21,22,22,23,23,24,24,25,25,26,26,27,27,28,28,29,29],"right_children":[2,4,6,8,10,12,14,16,18,20,22,24,26,28,30,32,34,36,38,40,42,44,46,48,50,52,54,56,58,60,-1,-1,-1,-1,-1,-1,-1,-1,-1,-1,-1,-1,-1,-1,-1,-1,-1,-1,-1,-1,-1,-1,-1,-1,-1,-1,-1,-1,-1,-1,-1],"split_conditions":[1.4056358E-1,1.172325E-2,4.0930527E-1,-4.8146665E-2,2.4191827E-2,1.6039068E-1,4.7790545E-1,9.077298E-2,1.2696916E-1,2.7151662E-1,4.9642342E-1,3.911493E-1,9.1738254E-2,4.2294005E-1,1.1158913E-1,2.6434183E-2,5.2426445E-1,5.028191E-1,3.0922467E-1,4.8268396E-1,1.0645759E-1,4.6477067E-1,4.5127508E-1,3.471807E-3,2.7548993E-1,3.938389E-1,4.5724657E-1,1.0886585E-1,1.9398402E-2,-9.969079E-2,5.3281147E-2,-5.985817E-2,5.841071E-2,-5.4408263E-2,5.6381136E-2,-5.5746388E-2,1.2258268E-2,-1.3272226E-2,9.450128E-2,-7.1007036E-2,2.9619096E-2,5.9303876E-2,6.693034E-3,-5.750506E-2,5.5178995E-3,-6.0685635E-2,6.0446132E-2,-1.02539295E-2,5.6909066E-2,2.5867692E-3,5.1832546E-2,-4.369118E-2,6.347062E-2,-6.63623E-2,2.9401971E-2,4.7559056E-2,-3.6833595E-2,5.8244415E-2,1.6649513E-2,-8.4106885E-2,8.340354E-3],"split_indices":[18,34,3,12,34,19,0,28,19,3,30,0,25,3,25,7,9,4,3,0,18,9,3,17,30,3,9,38,26,33,0,0,0,0,0,0,0,0,0,0,0,0,0,0,0,0,0,0,0,0,0,0,0,0,0,0,0,0,0,0,0],"split_type":[0,0,0,0,0,0,0,0,0,0,0,0,0,0,0,0,0,0,0,0,0,0,0,0,0,0,0,0,0,0,0,0,0,0,0,0,0,0,0,0,0,0,0,0,0,0,0,0,0,0,0,0,0,0,0,0,0,0,0,0,0],"sum_hessian":[1.2097397E4,8.073331E3,4.0240664E3,1.6516106E3,6.42172E3,2.0885803E3,1.9354858E3,1.5084546E3,1.4315596E2,3.3881868E3,3.0335334E3,1.8966658E3,1.9191464E2,1.904478E3,3.1007818E1,1.3817653E3,1.2668935E2,1.2979886E2,1.3357096E1,2.4574156E2,3.1424453E3,1.9284202E3,1.1051134E3,1.00202655E3,8.946392E2,2.2523191E1,1.6939146E2,7.025751E2,1.201903E3,2.088149E1,1.01263275E1,1.3760636E3,5.701651E0,9.8936935E1,2.7752409E1,1.0045699E2,2.9341875E1,1.0055162E0,1.235158E1,2.393882E2,6.3533697E0,9.054508E2,2.2369946E3,5.474369E2,1.3809832E3,1.0820065E3,2.3106995E1,8.3847894E2,1.6354758E2,1.1421916E2,7.804201E2,7.5641193E0,1.4959072E1,1.6685535E2,2.536112E0,6.199004E2,8.267469E1,1.1663688E3,3.5534206E1,1.8190624E1,2.6908684E0],"tree_param":{"num_deleted":"0","num_feature":"40","num_nodes":"61","size_leaf_vector":"1"}},{"base_weights":[-3.6293636E-3,2.4596626E-1,-7.5942117E-1,1.8225724E-2,8.5260165E-1,-1.0500052E0,-2.5781503E-1,-1.0544269E0,1.7728513E-1,1.22616716E-1,9.7682774E-1,-6.673246E-1,-1.1434578E0,-9.448127E-1,5.3234775E-2,-8.6794764E-2,-1.1961316E0,-7.9508346E-1,3.534145E-1,5.224298E-1,-9.0818644E-1,5.550126E-1,1.076101E0,-1.1909257E0,-3.4845853E-1,-2.0918043E-1,-1.1726141E0,-1.0583465E0,4.9688455E-1,5.514387E-1,-6.406786E-1,-5.5369973E-2,3.3117462E-2,6.0424335E-2,-6.0398966E-2,-5.8403026E-2,-2.4995359E-2,3.2542683E-2,-8.0713205E-4,5.7986166E-2,1.5537204E-2,2.187304E-2,-5.4036703E-2,5.5320043E-2,-1.0364526E-2,3.498188E-2,5.662642E-2,3.548514E-2,-6.469237E-2,-5.3006627E-2,4.224525E-2,4.7813997E-2,-4.808758E-2,-5.886815E-2,2.5621584E-2,-5.4515827E-2,4.98559E-2,-3.1913113E-2,5.5772245E-2,4.4952855E-2,-3.9754808E-2,6.039054E-2,-5.128345E-2],"categories":[],"categories_nodes":[],"categories_segments":[],"categories_sizes":[],"default_left":[0,0,0,0,0,0,0,0,0,0,0,0,0,0,0,0,0,0,0,0,0,0,0,0,0,0,0,0,0,0,0,0,0,0,0,0,0,0,0,0,0,0,0,0,0,0,0,0,0,0,0,0,0,0,0,0,0,0,0,0,0,0,0],"id":23,"left_children":[1,3,5,7,9,11,13,15,17,19,21,23,25,27,29,31,33,35,37,39,41,43,45,47,49,51,53,55,57,59,61,-1,-1,-1,-1,-1,-1,-1,-1,-1,-1,-1,-1,-1,-1,-1,-1,-1,-1,-1,-1,-1,-1,-1,-1,-1,-1,-1,-1,-1,-1,-1,-1],"loss_changes":[2.2478025E3,1.2375161E3,4.309077E2,1.1115112E3,2.215924E2,6.621118E1,2.3220636E2,1.1525256E2,9.719103E2,1.4748143E2,8.688843E1,6.1355362E1,4.0717773E1,5.5955414E1,2.5921072E2,8.3723595E1,2.236377E1,9.5236206E1,5.280674E2,3.4398064E1,2.370375E1,1.6839423E2,3.5110718E1,2.8229752E1,1.9738293E2,4.1902584E1,1.2270874E1,2.1736908E1,1.854803E1,2.0497803E2,2.2425931E2,0E0,0E0,0E0,0E0,0E0,0E0,0E0,0E0,0E0,0E0,0E0,0E0,0E0,0E0,0E0,0E0,0E0,0E0,0E0,0E0,0E0,0E0,0E0,0E0,0E0,0E0,0E0,0E0,0E0,0E0,0E0,0E0],"parents":[2147483647,0,0,1,1,2,2,3,3,4,4,5,5,6,6,7,7,8,8,9,9,10,10,11,11,12,12,13,13,14,14,15,15,16,16,17,17,18,18,19,19,20,20,21,21,22,22,23,23,24,24,25,25,26,26,27,27,28,28,29,29,30,30],"right_children":[2,4,6,8,10,12,14,16,18,20,22,24,26,28,30,32,34,36,38,40,42,44,46,48,50,52,54,56,58,60,62,-1,-1,-1,-1,-1,-1,-1,-1,-1,-1,-1,-1,-1,-1,-1,-1,-1,-1,-1,-1,-1,-1,-1,-1,-1,-1,-1,-1,-1,-1,-1,-1],"split_conditions":[4.9804935E-1,2.334925E-1,3.7829423E-1,4.511621E-1,1.6343176E-2,4.878997E-1,3.2614157E-2,1.5126768E-1,1.0722578E-2,6.128468E-3,5.213512E-1,-7.538544E-2,5.119487E-1,2.212578E-2,-4.7046576E-2,3.2674688E-1,3.9714733E-1,1.1323905E-1,8.471408E-4,-1.090378E-2,-1.3399043E-2,3.5587364E-1,2.3653683E-1,4.6681875E-1,2.8266788E-2,5.6961745E-1,1.4963603E-1,1.3857353E-1,5.1287234E-1,6.2725425E-1,8.826544E-2,-5.5369973E-2,3.3117462E-2,6.0424335E-2,-6.0398966E-2,-5.8403026E-2,-2.4995359E-2,3.2542683E-2,-8.0713205E-4,5.7986166E-2,1.5537204E-2,2.187304E-2,-5.4036703E-2,5.5320043E-2,-1.0364526E-2,3.498188E-2,5.662642E-2,3.548514E-2,-6.469237E-2,-5.3006627E-2,4.224525E-2,4.7813997E-2,-4.808758E-2,-5.886815E-2,2.5621584E-2,-5.4515827E-2,4.98559E-2,-3.1913113E-2,5.5772245E-2,4.4952855E-2,-3.9754808E-2,6.039054E-2,-5.128345E-2],"split_indices":[29,2,3,5,11,30,14,19,7,26,8,35,5,7,12,3,0,19,26,20,20,0,2,31,14,31,19,18,5,30,25,0,0,0,0,0,0,0,0,0,0,0,0,0,0,0,0,0,0,0,0,0,0,0,0,0,0,0,0,0,0,0,0],"split_type":[0,0,0,0,0,0,0,0,0,0,0,0,0,0,0,0,0,0,0,0,0,0,0,0,0,0,0,0,0,0,0,0,0,0,0,0,0,0,0,0,0,0,0,0,0,0,0,0,0,0,0,0,0,0,0,0,0,0,0,0,0,0,0],"sum_hessian":[1.1913694E4,8.956529E3,2.9571646E3,6.512619E3,2.4439104E3,1.871752E3,1.0854125E3,8.402922E2,5.672327E3,3.557017E2,2.0882087E3,3.68974E2,1.502778E3,3.3764285E2,7.4776965E2,1.0754342E2,7.327488E2,8.693481E2,4.802979E3,2.5664938E2,9.90523E1,3.9908298E2,1.6891257E3,1.3861813E2,2.3035585E2,4.5725876E1,1.4570521E3,3.13241E2,2.440186E1,4.353849E2,3.1238477E2,4.5321262E1,6.2222153E1,3.09739E0,7.2965137E2,3.8275354E2,4.8659454E2,2.6607253E3,2.1422534E3,6.2876667E1,1.9377274E2,1.1083115E1,8.7969185E1,2.3131621E2,1.6776677E2,2.2192455E2,1.4672012E3,6.8179083E0,1.3180023E2,1.4437065E2,8.59852E1,1.783509E1,2.7890785E1,1.4532577E3,3.794469E0,3.0890594E2,4.3350697E0,8.595689E0,1.580617E1,3.4631363E2,8.907124E1,5.3478127E1,2.5890665E2],"tree_param":{"num_deleted":"0","num_feature":"40","num_nodes":"63","size_leaf_vector":"1"}},{"base_weights":[-2.932251E-3,-2.818296E-1,6.4611804E-1,-7.547232E-2,-9.7043556E-1,-6.0377824E-1,7.2387546E-1,-6.372051E-1,1.2941717E-1,-3.933482E-1,-1.1288425E0,-9.889083E-1,6.245625E-1,5.063862E-1,1.1228466E0,-8.1288904E-2,-1.0560876E0,2.4292383E-1,-1.2412117E0,9.0267375E-2,-1.239043E0,-1.1408621E0,3.279095E-1,6.771701E-2,-1.0935476E0,-8.1449866E-1,1.3630033E0,-8.450479E-3,7.671458E-1,-1.2513418E0,1.1436994E0,-6.038442E-2,2.138332E-2,-6.0289618E-2,-6.3588843E-3,-5.792526E-2,1.6478656E-2,-6.465582E-2,5.7444412E-2,-4.0380973E-2,4.088945E-2,-1.864401E-2,-6.4231224E-2,-4.5303006E-2,-5.9393276E-2,-5.769092E-2,5.018719E-2,-5.7058055E-2,3.940374E-2,2.598322E-2,-4.911628E-2,7.324718E-2,-3.1313546E-2,-1.4348446E-2,5.206914E-2,5.3785946E-2,1.0969947E-2,-1.497875E-1,4.9346037E-2,1.8259272E-2,5.8192976E-2],"categories":[],"categories_nodes":[],"categories_segments":[],"categories_sizes":[],"default_left":[0,0,0,0,0,0,0,0,0,0,0,0,0,0,0,0,0,0,0,0,0,0,0,0,0,0,0,0,0,0,0,0,0,0,0,0,0,0,0,0,0,0,0,0,0,0,0,0,0,0,0,0,0,0,0,0,0,0,0,0,0],"id":24,"left_children":[1,3,5,7,9,11,13,15,17,19,21,23,25,27,29,31,33,35,37,39,41,43,45,-1,47,49,51,53,55,57,59,-1,-1,-1,-1,-1,-1,-1,-1,-1,-1,-1,-1,-1,-1,-1,-1,-1,-1,-1,-1,-1,-1,-1,-1,-1,-1,-1,-1,-1,-1],"loss_changes":[2.125372E3,1.1668904E3,3.434016E2,7.27454E2,1.726482E2,9.864808E1,2.877423E2,3.9327405E2,7.208685E2,1.6752988E2,2.637854E1,4.0257645E1,5.4323963E1,2.8893866E2,5.942639E1,4.17276E2,1.338003E2,5.1989954E2,4.5450317E1,1.7138449E2,5.403305E0,1.5182739E1,1.410659E1,0E0,